<?xml version="1.0"?>
<opencv_storage>
<cascade>
  <stageType>BOOST</stageType>
  <featureType>HAAR</featureType>
  <height>20</height>
  <width>20</width>
  <stageParams>
    <boostType>GAB</boostType>
    <minHitRate>9.9500000476837158e-01</minHitRate>
    <maxFalseAlarm>5.0000000000000000e-01</maxFalseAlarm>
    <weightTrimRate>9.4999999999999996e-01</weightTrimRate>
    <maxDepth>1</maxDepth>
    <maxWeakCount>213</maxWeakCount></stageParams>
  <featureParams>
    <maxCatCount>0</maxCatCount>
    <featSize>1</featSize>
    <mode>ALL</mode></featureParams>
  <stageNum>20</stageNum>
  <stages>
    <!-- stage 0 -->
    <_>
      <maxWeakCount>9</maxWeakCount>
      <stageThreshold>-1.9224964380264282e+00</stageThreshold>
      <weakClassifiers>
        <_>
          <internalNodes>
            0 -1 461 -6.6436111927032471e-02</internalNodes>
          <leafValues>
            4.4678217172622681e-01 -7.6560175418853760e-01</leafValues></_>
        <_>
          <internalNodes>
            0 -1 767 -4.6625010669231415e-02</internalNodes>
          <leafValues>
            6.5504395961761475e-01 -5.2333080768585205e-01</leafValues></_>
        <_>
          <internalNodes>
            0 -1 64 -2.4066179990768433e-02</internalNodes>
          <leafValues>
            4.6485611796379089e-01 -4.4203361868858337e-01</leafValues></_>
        <_>
          <internalNodes>
            0 -1 22 -1.4825535938143730e-02</internalNodes>
          <leafValues>
            5.4981923103332520e-01 -2.5091564655303955e-01</leafValues></_>
        <_>
          <internalNodes>
            0 -1 268 1.3068276643753052e-01</internalNodes>
          <leafValues>
            1.8710052967071533e-01 -6.9644987583160400e-01</leafValues></_>
        <_>
          <internalNodes>
            0 -1 892 1.6615793108940125e-02</internalNodes>
          <leafValues>
            -1.7359888553619385e-01 6.3447171449661255e-01</leafValues></_>
        <_>
          <internalNodes>
            0 -1 910 1.6536826267838478e-02</internalNodes>
          <leafValues>
            -1.6214798390865326e-01 6.4200025796890259e-01</leafValues></_>
        <_>
          <internalNodes>
            0 -1 956 8.2408159971237183e-02</internalNodes>
          <leafValues>
            1.5827322006225586e-01 -8.1222808361053467e-01</leafValues></_>
        <_>
          <internalNodes>
            0 -1 112 4.7596157528460026e-03</internalNodes>
          <leafValues>
            -1.9212409853935242e-01 5.9249264001846313e-01</leafValues></_></weakClassifiers></_>
    <!-- stage 1 -->
    <_>
      <maxWeakCount>15</maxWeakCount>
      <stageThreshold>-1.6556265354156494e+00</stageThreshold>
      <weakClassifiers>
        <_>
          <internalNodes>
            0 -1 510 2.4714581668376923e-02</internalNodes>
          <leafValues>
            -6.6585701704025269e-01 3.5436892509460449e-01</leafValues></_>
        <_>
          <internalNodes>
            0 -1 852 -5.6018918752670288e-02</internalNodes>
          <leafValues>
            5.6638431549072266e-01 -3.6803209781646729e-01</leafValues></_>
        <_>
          <internalNodes>
            0 -1 56 -1.0170215740799904e-02</internalNodes>
          <leafValues>
            3.3108642697334290e-01 -4.7882366180419922e-01</leafValues></_>
        <_>
          <internalNodes>
            0 -1 766 -1.2803051620721817e-02</internalNodes>
          <leafValues>
            5.1769858598709106e-01 -1.9813618063926697e-01</leafValues></_>
        <_>
          <internalNodes>
            0 -1 855 1.2773543596267700e-02</internalNodes>
          <leafValues>
            -1.8440362811088562e-01 5.6257736682891846e-01</leafValues></_>
        <_>
          <internalNodes>
            0 -1 321 7.5977845117449760e-03</internalNodes>
          <leafValues>
            -3.3466342091560364e-01 3.0836364626884460e-01</leafValues></_>
        <_>
          <internalNodes>
            0 -1 246 -4.1598360985517502e-03</internalNodes>
          <leafValues>
            4.9596595764160156e-01 -1.4502084255218506e-01</leafValues></_>
        <_>
          <internalNodes>
            0 -1 23 -3.4067038446664810e-02</internalNodes>
          <leafValues>
            4.5849230885505676e-01 -1.7399853467941284e-01</leafValues></_>
        <_>
          <internalNodes>
            0 -1 269 -3.1316462904214859e-02</internalNodes>
          <leafValues>
            2.9814755916595459e-01 -2.9584038257598877e-01</leafValues></_>
        <_>
          <internalNodes>
            0 -1 870 6.9942339323461056e-03</internalNodes>
          <leafValues>
            -1.3279855251312256e-01 4.8642525076866150e-01</leafValues></_>
        <_>
          <internalNodes>
            0 -1 871 -9.2665273696184158e-03</internalNodes>
          <leafValues>
            5.2882051467895508e-01 -1.3245126605033875e-01</leafValues></_>
        <_>
          <internalNodes>
            0 -1 849 2.7828436344861984e-02</internalNodes>
          <leafValues>
            -7.5879283249378204e-02 6.4712417125701904e-01</leafValues></_>
        <_>
          <internalNodes>
            0 -1 259 -1.2224802747368813e-02</internalNodes>
          <leafValues>
            4.2771673202514648e-01 -1.2600719928741455e-01</leafValues></_>
        <_>
          <internalNodes>
            0 -1 420 -4.5529309660196304e-02</internalNodes>
          <leafValues>
            -8.8920718431472778e-01 6.8380273878574371e-02</leafValues></_>
        <_>
          <internalNodes>
            0 -1 454 5.8209961280226707e-03</internalNodes>
          <leafValues>
            -1.5642118453979492e-01 3.8728389143943787e-01</leafValues></_></weakClassifiers></_>
    <!-- stage 2 -->
    <_>
      <maxWeakCount>19</maxWeakCount>
      <stageThreshold>-1.6608793735504150e+00</stageThreshold>
      <weakClassifiers>
        <_>
          <internalNodes>
            0 -1 43 -6.4549699425697327e-02</internalNodes>
          <leafValues>
            3.2173912972211838e-02 -7.3914891481399536e-01</leafValues></_>
        <_>
          <internalNodes>
            0 -1 365 -3.1476847827434540e-02</internalNodes>
          <leafValues>
            2.0955778658390045e-01 -4.3163639307022095e-01</leafValues></_>
        <_>
          <internalNodes>
            0 -1 821 2.6158016175031662e-02</internalNodes>
          <leafValues>
            -2.3369432985782623e-01 4.2703390121459961e-01</leafValues></_>
        <_>
          <internalNodes>
            0 -1 340 -5.2739240229129791e-02</internalNodes>
          <leafValues>
            3.7535539269447327e-01 -2.1299120783805847e-01</leafValues></_>
        <_>
          <internalNodes>
            0 -1 889 2.1170485764741898e-02</internalNodes>
          <leafValues>
            -1.3404196500778198e-01 4.8427736759185791e-01</leafValues></_>
        <_>
          <internalNodes>
            0 -1 561 5.0056120380759239e-03</internalNodes>
          <leafValues>
            -2.2933818399906158e-01 2.8259152173995972e-01</leafValues></_>
        <_>
          <internalNodes>
            0 -1 77 1.8233031034469604e-02</internalNodes>
          <leafValues>
            -8.2086771726608276e-02 5.5464351177215576e-01</leafValues></_>
        <_>
          <internalNodes>
            0 -1 419 1.0206813749391586e-04</internalNodes>
          <leafValues>
            1.6343177855014801e-01 -3.1899973750114441e-01</leafValues></_>
        <_>
          <internalNodes>
            0 -1 342 -2.3426361382007599e-02</internalNodes>
          <leafValues>
            3.0931934714317322e-01 -1.5851974487304688e-01</leafValues></_>
        <_>
          <internalNodes>
            0 -1 107 -5.0584447383880615e-01</internalNodes>
          <leafValues>
            3.7813821434974670e-01 -1.3005296885967255e-01</leafValues></_>
        <_>
          <internalNodes>
            0 -1 911 2.2562943398952484e-02</internalNodes>
          <leafValues>
            -1.2525077164173126e-01 4.7109255194664001e-01</leafValues></_>
        <_>
          <internalNodes>
            0 -1 958 -7.2355251759290695e-03</internalNodes>
          <leafValues>
            3.9454272389411926e-01 -1.3049498200416565e-01</leafValues></_>
        <_>
          <internalNodes>
            0 -1 686 -7.6832156628370285e-03</internalNodes>
          <leafValues>
            2.4539443850517273e-01 -2.4341502785682678e-01</leafValues></_>
        <_>
          <internalNodes>
            0 -1 491 -1.2582237832248211e-03</internalNodes>
          <leafValues>
            -5.9497964382171631e-01 8.0540917813777924e-02</leafValues></_>
        <_>
          <internalNodes>
            0 -1 549 -7.1390112861990929e-04</internalNodes>
          <leafValues>
            -5.2336299419403076e-01 8.5408374667167664e-02</leafValues></_>
        <_>
          <internalNodes>
            0 -1 402 -1.4815434813499451e-02</internalNodes>
          <leafValues>
            5.7000297307968140e-01 -9.6074692904949188e-02</leafValues></_>
        <_>
          <internalNodes>
            0 -1 289 -1.5020361170172691e-02</internalNodes>
          <leafValues>
            4.8689636588096619e-01 -1.1103183031082153e-01</leafValues></_>
        <_>
          <internalNodes>
            0 -1 62 -1.5850821509957314e-02</internalNodes>
          <leafValues>
            1.9037346541881561e-01 -2.4550539255142212e-01</leafValues></_>
        <_>
          <internalNodes>
            0 -1 205 1.1562400497496128e-02</internalNodes>
          <leafValues>
            -1.3448262214660645e-01 3.1228357553482056e-01</leafValues></_></weakClassifiers></_>
    <!-- stage 3 -->
    <_>
      <maxWeakCount>29</maxWeakCount>
      <stageThreshold>-1.7356525659561157e+00</stageThreshold>
      <weakClassifiers>
        <_>
          <internalNodes>
            0 -1 157 -6.2341935932636261e-02</internalNodes>
          <leafValues>
            -1.3050018250942230e-01 -7.0329415798187256e-01</leafValues></_>
        <_>
          <internalNodes>
            0 -1 221 -1.1279051005840302e-01</internalNodes>
          <leafValues>
            2.1878768503665924e-01 -3.5332307219505310e-01</leafValues></_>
        <_>
          <internalNodes>
            0 -1 863 1.8430322408676147e-02</internalNodes>
          <leafValues>
            -1.9415821135044098e-01 3.5892269015312195e-01</leafValues></_>
        <_>
          <internalNodes>
            0 -1 60 -1.2183265760540962e-02</internalNodes>
          <leafValues>
            2.2990153729915619e-01 -3.1504338979721069e-01</leafValues></_>
        <_>
          <internalNodes>
            0 -1 444 5.2290037274360657e-03</internalNodes>
          <leafValues>
            -2.9534876346588135e-01 1.9537019729614258e-01</leafValues></_>
        <_>
          <internalNodes>
            0 -1 591 -4.7276476398110390e-03</internalNodes>
          <leafValues>
            -7.8066486120223999e-01 6.3684940338134766e-02</leafValues></_>
        <_>
          <internalNodes>
            0 -1 352 -4.8936689272522926e-03</internalNodes>
          <leafValues>
            2.5818812847137451e-01 -1.8853804469108582e-01</leafValues></_>
        <_>
          <internalNodes>
            0 -1 328 2.3049622774124146e-02</internalNodes>
          <leafValues>
            -8.0988131463527679e-02 5.2628946304321289e-01</leafValues></_>
        <_>
          <internalNodes>
            0 -1 257 -9.8984707146883011e-03</internalNodes>
          <leafValues>
            3.8218384981155396e-01 -1.1826203018426895e-01</leafValues></_>
        <_>
          <internalNodes>
            0 -1 148 6.8755489774048328e-03</internalNodes>
          <leafValues>
            -1.1550223827362061e-01 3.4347462654113770e-01</leafValues></_>
        <_>
          <internalNodes>
            0 -1 159 -9.5687117427587509e-03</internalNodes>
          <leafValues>
            2.0826382935047150e-01 -2.0223821699619293e-01</leafValues></_>
        <_>
          <internalNodes>
            0 -1 648 -4.8509463667869568e-03</internalNodes>
          <leafValues>
            -6.4545679092407227e-01 6.3040040433406830e-02</leafValues></_>
        <_>
          <internalNodes>
            0 -1 880 5.0642378628253937e-02</internalNodes>
          <leafValues>
            -9.5326371490955353e-02 4.7882601618766785e-01</leafValues></_>
        <_>
          <internalNodes>
            0 -1 918 -4.6106047928333282e-02</internalNodes>
          <leafValues>
            4.6867910027503967e-01 -8.4830909967422485e-02</leafValues></_>
        <_>
          <internalNodes>
            0 -1 71 4.7687673941254616e-03</internalNodes>
          <leafValues>
            -1.0962210595607758e-01 3.6976447701454163e-01</leafValues></_>
        <_>
          <internalNodes>
            0 -1 117 -2.1386027219705284e-04</internalNodes>
          <leafValues>
            1.8676880002021790e-01 -2.2768175601959229e-01</leafValues></_>
        <_>
          <internalNodes>
            0 -1 290 2.5814052671194077e-02</internalNodes>
          <leafValues>
            -1.0214875638484955e-01 5.0569707155227661e-01</leafValues></_>
        <_>
          <internalNodes>
            0 -1 101 6.4085507392883301e-01</internalNodes>
          <leafValues>
            -5.8339495211839676e-02 6.8013972043991089e-01</leafValues></_>
        <_>
          <internalNodes>
            0 -1 802 -1.7112784087657928e-02</internalNodes>
          <leafValues>
            4.0005946159362793e-01 -9.7042106091976166e-02</leafValues></_>
        <_>
          <internalNodes>
            0 -1 546 -2.8321461286395788e-03</internalNodes>
          <leafValues>
            -6.9783991575241089e-01 5.8962725102901459e-02</leafValues></_>
        <_>
          <internalNodes>
            0 -1 486 5.9023936046287417e-05</internalNodes>
          <leafValues>
            1.5518000721931458e-01 -2.7332022786140442e-01</leafValues></_>
        <_>
          <internalNodes>
            0 -1 585 2.9500757227651775e-04</internalNodes>
          <leafValues>
            1.2981501221656799e-01 -2.8177666664123535e-01</leafValues></_>
        <_>
          <internalNodes>
            0 -1 634 -9.0798747260123491e-04</internalNodes>
          <leafValues>
            1.9126492738723755e-01 -2.1190603077411652e-01</leafValues></_>
        <_>
          <internalNodes>
            0 -1 717 -8.1079732626676559e-03</internalNodes>
          <leafValues>
            2.8599554300308228e-01 -1.3693508505821228e-01</leafValues></_>
        <_>
          <internalNodes>
            0 -1 693 -3.0147150391712785e-04</internalNodes>
          <leafValues>
            -2.2608563303947449e-01 1.8047524988651276e-01</leafValues></_>
        <_>
          <internalNodes>
            0 -1 894 2.1358266472816467e-02</internalNodes>
          <leafValues>
            -9.8304301500320435e-02 3.9322352409362793e-01</leafValues></_>
        <_>
          <internalNodes>
            0 -1 395 4.9187175929546356e-02</internalNodes>
          <leafValues>
            -1.7554438114166260e-01 2.1788413822650909e-01</leafValues></_>
        <_>
          <internalNodes>
            0 -1 141 2.1041985601186752e-02</internalNodes>
          <leafValues>
            -1.0139796882867813e-01 3.6652728915214539e-01</leafValues></_>
        <_>
          <internalNodes>
            0 -1 144 -8.1380978226661682e-03</internalNodes>
          <leafValues>
            3.8293948769569397e-01 -9.4796530902385712e-02</leafValues></_></weakClassifiers></_>
    <!-- stage 4 -->
    <_>
      <maxWeakCount>34</maxWeakCount>
      <stageThreshold>-1.6880893707275391e+00</stageThreshold>
      <weakClassifiers>
        <_>
          <internalNodes>
            0 -1 801 2.9754243791103363e-02</internalNodes>
          <leafValues>
            -5.9520286321640015e-01 2.4424973130226135e-01</leafValues></_>
        <_>
          <internalNodes>
            0 -1 266 3.5361506044864655e-02</internalNodes>
          <leafValues>
            -1.9979409873485565e-01 5.3811734914779663e-01</leafValues></_>
        <_>
          <internalNodes>
            0 -1 747 3.1188106164336205e-02</internalNodes>
          <leafValues>
            -2.0851314067840576e-01 2.9344010353088379e-01</leafValues></_>
        <_>
          <internalNodes>
            0 -1 125 -2.1680494770407677e-02</internalNodes>
          <leafValues>
            2.6183411478996277e-01 -2.0444454252719879e-01</leafValues></_>
        <_>
          <internalNodes>
            0 -1 301 4.0411850204691291e-04</internalNodes>
          <leafValues>
            1.3854534924030304e-01 -3.3294770121574402e-01</leafValues></_>
        <_>
          <internalNodes>
            0 -1 69 1.2248062342405319e-01</internalNodes>
          <leafValues>
            -5.6916702538728714e-02 5.7059836387634277e-01</leafValues></_>
        <_>
          <internalNodes>
            0 -1 349 -1.7034359276294708e-02</internalNodes>
          <leafValues>
            1.7354398965835571e-01 -2.8057238459587097e-01</leafValues></_>
        <_>
          <internalNodes>
            0 -1 55 3.3850923180580139e-02</internalNodes>
          <leafValues>
            -1.0573581606149673e-01 3.9226004481315613e-01</leafValues></_>
        <_>
          <internalNodes>
            0 -1 13 -3.4142124652862549e-01</internalNodes>
          <leafValues>
            -7.6874136924743652e-01 5.3186785429716110e-02</leafValues></_>
        <_>
          <internalNodes>
            0 -1 545 3.2252474920824170e-04</internalNodes>
          <leafValues>
            1.0223102569580078e-01 -3.8129931688308716e-01</leafValues></_>
        <_>
          <internalNodes>
            0 -1 489 2.7120776940137148e-04</internalNodes>
          <leafValues>
            1.2863388657569885e-01 -3.5679426789283752e-01</leafValues></_>
        <_>
          <internalNodes>
            0 -1 216 -5.4113917052745819e-02</internalNodes>
          <leafValues>
            3.3116742968559265e-01 -1.4061285555362701e-01</leafValues></_>
        <_>
          <internalNodes>
            0 -1 799 2.0250361412763596e-02</internalNodes>
          <leafValues>
            -1.1916336417198181e-01 3.8807579874992371e-01</leafValues></_>
        <_>
          <internalNodes>
            0 -1 384 -1.9005036447197199e-03</internalNodes>
          <leafValues>
            1.9536268711090088e-01 -2.1432691812515259e-01</leafValues></_>
        <_>
          <internalNodes>
            0 -1 789 -1.8976282328367233e-02</internalNodes>
          <leafValues>
            3.1867116689682007e-01 -1.2990720570087433e-01</leafValues></_>
        <_>
          <internalNodes>
            0 -1 382 -2.8005102649331093e-02</internalNodes>
          <leafValues>
            -4.5261424779891968e-01 8.6288765072822571e-02</leafValues></_>
        <_>
          <internalNodes>
            0 -1 49 2.2362358868122101e-03</internalNodes>
          <leafValues>
            -1.8435302376747131e-01 1.9184157252311707e-01</leafValues></_>
        <_>
          <internalNodes>
            0 -1 363 2.7562940493226051e-02</internalNodes>
          <leafValues>
            -8.3369970321655273e-02 4.8250937461853027e-01</leafValues></_>
        <_>
          <internalNodes>
            0 -1 427 5.9615809004753828e-04</internalNodes>
          <leafValues>
            9.0857826173305511e-02 -4.1003075242042542e-01</leafValues></_>
        <_>
          <internalNodes>
            0 -1 913 -7.9805254936218262e-03</internalNodes>
          <leafValues>
            3.0212450027465820e-01 -1.3818718492984772e-01</leafValues></_>
        <_>
          <internalNodes>
            0 -1 938 2.8638881631195545e-03</internalNodes>
          <leafValues>
            -1.2598235905170441e-01 2.5865486264228821e-01</leafValues></_>
        <_>
          <internalNodes>
            0 -1 888 -2.1628394722938538e-02</internalNodes>
          <leafValues>
            5.7966774702072144e-01 -5.5179785937070847e-02</leafValues></_>
        <_>
          <internalNodes>
            0 -1 17 3.2440352439880371e-01</internalNodes>
          <leafValues>
            7.0993378758430481e-02 -5.4213333129882812e-01</leafValues></_>
        <_>
          <internalNodes>
            0 -1 827 -5.1183123141527176e-03</internalNodes>
          <leafValues>
            -6.2151283025741577e-01 4.3813813477754593e-02</leafValues></_>
        <_>
          <internalNodes>
            0 -1 590 -3.4243254922330379e-03</internalNodes>
          <leafValues>
            -6.8942928314208984e-01 4.0211975574493408e-02</leafValues></_>
        <_>
          <internalNodes>
            0 -1 919 -1.3799585402011871e-02</internalNodes>
          <leafValues>
            2.6564553380012512e-01 -1.3633799552917480e-01</leafValues></_>
        <_>
          <internalNodes>
            0 -1 254 4.3992018327116966e-03</internalNodes>
          <leafValues>
            -1.4387105405330658e-01 2.3556824028491974e-01</leafValues></_>
        <_>
          <internalNodes>
            0 -1 813 -1.0267681209370494e-03</internalNodes>
          <leafValues>
            1.4536048471927643e-01 -2.2405515611171722e-01</leafValues></_>
        <_>
          <internalNodes>
            0 -1 621 1.3564279302954674e-02</internalNodes>
          <leafValues>
            -1.3294743001461029e-01 2.5100496411323547e-01</leafValues></_>
        <_>
          <internalNodes>
            0 -1 66 -3.9448902010917664e-02</internalNodes>
          <leafValues>
            -8.8195538520812988e-01 3.8062948733568192e-02</leafValues></_>
        <_>
          <internalNodes>
            0 -1 631 1.5520539134740829e-02</internalNodes>
          <leafValues>
            -6.4080581068992615e-02 5.8338677883148193e-01</leafValues></_>
        <_>
          <internalNodes>
            0 -1 588 4.8278740723617375e-04</internalNodes>
          <leafValues>
            9.1760627925395966e-02 -3.8617265224456787e-01</leafValues></_>
        <_>
          <internalNodes>
            0 -1 39 1.0244086384773254e-02</internalNodes>
          <leafValues>
            -9.4027325510978699e-02 3.6230817437171936e-01</leafValues></_>
        <_>
          <internalNodes>
            0 -1 922 -2.3949204478412867e-03</internalNodes>
          <leafValues>
            3.0861914157867432e-01 -9.8836369812488556e-02</leafValues></_></weakClassifiers></_>
    <!-- stage 5 -->
    <_>
      <maxWeakCount>45</maxWeakCount>
      <stageThreshold>-1.5307278633117676e+00</stageThreshold>
      <weakClassifiers>
        <_>
          <internalNodes>
            0 -1 846 2.6848342269659042e-02</internalNodes>
          <leafValues>
            -5.5402815341949463e-01 8.8709674775600433e-02</leafValues></_>
        <_>
          <internalNodes>
            0 -1 116 -3.6814101040363312e-03</internalNodes>
          <leafValues>
            8.4785602986812592e-02 -4.5617729425430298e-01</leafValues></_>
        <_>
          <internalNodes>
            0 -1 899 -5.0959762185811996e-02</internalNodes>
          <leafValues>
            2.9911541938781738e-01 -1.6819819808006287e-01</leafValues></_>
        <_>
          <internalNodes>
            0 -1 72 3.4580081701278687e-02</internalNodes>
          <leafValues>
            -7.5392045080661774e-02 4.9018990993499756e-01</leafValues></_>
        <_>
          <internalNodes>
            0 -1 231 4.7792389523237944e-04</internalNodes>
          <leafValues>
            -1.8755266070365906e-01 1.8632866442203522e-01</leafValues></_>
        <_>
          <internalNodes>
            0 -1 536 2.0744407083839178e-04</internalNodes>
          <leafValues>
            1.7050686478614807e-01 -2.6584777235984802e-01</leafValues></_>
        <_>
          <internalNodes>
            0 -1 387 1.8106808420270681e-03</internalNodes>
          <leafValues>
            -2.5123736262321472e-01 1.5416260063648224e-01</leafValues></_>
        <_>
          <internalNodes>
            0 -1 339 -2.2441767156124115e-02</internalNodes>
          <leafValues>
            2.5348001718521118e-01 -1.4249981939792633e-01</leafValues></_>
        <_>
          <internalNodes>
            0 -1 910 -4.5694254338741302e-02</internalNodes>
          <leafValues>
            4.8675659298896790e-01 -7.0486642420291901e-02</leafValues></_>
        <_>
          <internalNodes>
            0 -1 407 -1.7743054777383804e-03</internalNodes>
          <leafValues>
            1.4302298426628113e-01 -2.3878194391727448e-01</leafValues></_>
        <_>
          <internalNodes>
            0 -1 887 -7.7102808281779289e-03</internalNodes>
          <leafValues>
            3.2028290629386902e-01 -1.0377156734466553e-01</leafValues></_>
        <_>
          <internalNodes>
            0 -1 582 5.3168041631579399e-04</internalNodes>
          <leafValues>
            8.4902293980121613e-02 -3.7866619229316711e-01</leafValues></_>
        <_>
          <internalNodes>
            0 -1 15 -2.7328708767890930e-01</internalNodes>
          <leafValues>
            -6.4648044109344482e-01 3.9858900010585785e-02</leafValues></_>
        <_>
          <internalNodes>
            0 -1 130 -3.1540162861347198e-02</internalNodes>
          <leafValues>
            1.9194105267524719e-01 -1.4933536946773529e-01</leafValues></_>
        <_>
          <internalNodes>
            0 -1 477 -5.4440427571535110e-02</internalNodes>
          <leafValues>
            6.7551803588867188e-01 -4.8948585987091064e-02</leafValues></_>
        <_>
          <internalNodes>
            0 -1 379 1.1435602937126532e-04</internalNodes>
          <leafValues>
            1.6006121039390564e-01 -2.5631439685821533e-01</leafValues></_>
        <_>
          <internalNodes>
            0 -1 607 -1.0711148381233215e-02</internalNodes>
          <leafValues>
            1.6988807916641235e-01 -1.6500321030616760e-01</leafValues></_>
        <_>
          <internalNodes>
            0 -1 568 1.8677990883588791e-02</internalNodes>
          <leafValues>
            -1.1660335212945938e-01 2.6546406745910645e-01</leafValues></_>
        <_>
          <internalNodes>
            0 -1 207 9.6124480478465557e-04</internalNodes>
          <leafValues>
            -9.3240939080715179e-02 3.0294424295425415e-01</leafValues></_>
        <_>
          <internalNodes>
            0 -1 434 -6.6146679455414414e-04</internalNodes>
          <leafValues>
            -4.0819931030273438e-01 7.2248786687850952e-02</leafValues></_>
        <_>
          <internalNodes>
            0 -1 295 -1.0896215215325356e-02</internalNodes>
          <leafValues>
            4.9439796805381775e-01 -6.1194058507680893e-02</leafValues></_>
        <_>
          <internalNodes>
            0 -1 467 -1.7897669225931168e-02</internalNodes>
          <leafValues>
            2.9437276721000671e-01 -1.0379581153392792e-01</leafValues></_>
        <_>
          <internalNodes>
            0 -1 616 9.8372120410203934e-03</internalNodes>
          <leafValues>
            4.4167172163724899e-02 -7.0251780748367310e-01</leafValues></_>
        <_>
          <internalNodes>
            0 -1 296 -3.2213449012488127e-03</internalNodes>
          <leafValues>
            1.4195360243320465e-01 -2.0566177368164062e-01</leafValues></_>
        <_>
          <internalNodes>
            0 -1 376 -3.9544329047203064e-03</internalNodes>
          <leafValues>
            -4.1346493363380432e-01 6.8903177976608276e-02</leafValues></_>
        <_>
          <internalNodes>
            0 -1 741 -8.7349745444953442e-04</internalNodes>
          <leafValues>
            1.5289212763309479e-01 -1.7932325601577759e-01</leafValues></_>
        <_>
          <internalNodes>
            0 -1 960 3.7998356856405735e-03</internalNodes>
          <leafValues>
            -1.0855405032634735e-01 2.5141155719757080e-01</leafValues></_>
        <_>
          <internalNodes>
            0 -1 962 -6.8692779168486595e-03</internalNodes>
          <leafValues>
            3.7997880578041077e-01 -9.5613837242126465e-02</leafValues></_>
        <_>
          <internalNodes>
            0 -1 527 1.2584601063281298e-04</internalNodes>
          <leafValues>
            1.3046832382678986e-01 -2.0327095687389374e-01</leafValues></_>
        <_>
          <internalNodes>
            0 -1 109 3.9615090936422348e-03</internalNodes>
          <leafValues>
            -1.1569499969482422e-01 2.6649531722068787e-01</leafValues></_>
        <_>
          <internalNodes>
            0 -1 136 -3.3850809559226036e-03</internalNodes>
          <leafValues>
            2.4574875831604004e-01 -1.0588589310646057e-01</leafValues></_>
        <_>
          <internalNodes>
            0 -1 85 2.7171116322278976e-02</internalNodes>
          <leafValues>
            -1.0054335743188858e-01 3.2942214608192444e-01</leafValues></_>
        <_>
          <internalNodes>
            0 -1 195 8.1055462360382080e-03</internalNodes>
          <leafValues>
            -7.9439096152782440e-02 3.5716286301612854e-01</leafValues></_>
        <_>
          <internalNodes>
            0 -1 619 1.3309964910149574e-02</internalNodes>
          <leafValues>
            4.6918231993913651e-02 -6.3183861970901489e-01</leafValues></_>
        <_>
          <internalNodes>
            0 -1 623 -7.0804392453283072e-04</internalNodes>
          <leafValues>
            1.8887791037559509e-01 -1.5375131368637085e-01</leafValues></_>
        <_>
          <internalNodes>
            0 -1 652 -1.2953402474522591e-03</internalNodes>
          <leafValues>
            -5.3567963838577271e-01 5.2637685090303421e-02</leafValues></_>
        <_>
          <internalNodes>
            0 -1 652 2.1880527492612600e-04</internalNodes>
          <leafValues>
            9.9841117858886719e-02 -2.9595178365707397e-01</leafValues></_>
        <_>
          <internalNodes>
            0 -1 242 1.9390732632018626e-05</internalNodes>
          <leafValues>
            1.0991627722978592e-01 -2.3767840862274170e-01</leafValues></_>
        <_>
          <internalNodes>
            0 -1 817 -5.5698852520436049e-04</internalNodes>
          <leafValues>
            1.3741677999496460e-01 -1.9639402627944946e-01</leafValues></_>
        <_>
          <internalNodes>
            0 -1 106 -3.4626930952072144e-02</internalNodes>
          <leafValues>
            4.3449571728706360e-01 -6.4217664301395416e-02</leafValues></_>
        <_>
          <internalNodes>
            0 -1 468 -5.7944335043430328e-02</internalNodes>
          <leafValues>
            -6.3570362329483032e-01 4.5904517173767090e-02</leafValues></_>
        <_>
          <internalNodes>
            0 -1 394 -3.3878594636917114e-02</internalNodes>
          <leafValues>
            -5.7177144289016724e-01 3.8979738950729370e-02</leafValues></_>
        <_>
          <internalNodes>
            0 -1 192 -1.0719664394855499e-02</internalNodes>
          <leafValues>
            1.8102149665355682e-01 -1.4395321905612946e-01</leafValues></_>
        <_>
          <internalNodes>
            0 -1 311 -4.0689539164304733e-02</internalNodes>
          <leafValues>
            2.8512868285179138e-01 -1.0555627942085266e-01</leafValues></_>
        <_>
          <internalNodes>
            0 -1 856 -4.3080441653728485e-02</internalNodes>
          <leafValues>
            5.9971231222152710e-01 -4.1769422590732574e-02</leafValues></_></weakClassifiers></_>
    <!-- stage 6 -->
    <_>
      <maxWeakCount>47</maxWeakCount>
      <stageThreshold>-1.5203361511230469e+00</stageThreshold>
      <weakClassifiers>
        <_>
          <internalNodes>
            0 -1 765 2.5601513683795929e-02</internalNodes>
          <leafValues>
            -5.9665501117706299e-01 -1.7868675291538239e-01</leafValues></_>
        <_>
          <internalNodes>
            0 -1 92 -1.6716847196221352e-02</internalNodes>
          <leafValues>
            2.0141130685806274e-01 -2.6936569809913635e-01</leafValues></_>
        <_>
          <internalNodes>
            0 -1 386 5.9573240578174591e-03</internalNodes>
          <leafValues>
            -3.2302626967430115e-01 1.0444076359272003e-01</leafValues></_>
        <_>
          <internalNodes>
            0 -1 762 1.1080882977694273e-03</internalNodes>
          <leafValues>
            -1.8333117663860321e-01 1.8547850847244263e-01</leafValues></_>
        <_>
          <internalNodes>
            0 -1 71 1.1735861189663410e-02</internalNodes>
          <leafValues>
            -6.0789365321397781e-02 5.2333468198776245e-01</leafValues></_>
        <_>
          <internalNodes>
            0 -1 732 -6.3858060166239738e-03</internalNodes>
          <leafValues>
            2.0225533843040466e-01 -1.7854833602905273e-01</leafValues></_>
        <_>
          <internalNodes>
            0 -1 640 2.5439623277634382e-04</internalNodes>
          <leafValues>
            9.8641172051429749e-02 -2.6954868435859680e-01</leafValues></_>
        <_>
          <internalNodes>
            0 -1 644 -5.0883332733064890e-04</internalNodes>
          <leafValues>
            -3.9538231492042542e-01 8.8922306895256042e-02</leafValues></_>
        <_>
          <internalNodes>
            0 -1 575 -8.5166310891509056e-03</internalNodes>
          <leafValues>
            1.7716309428215027e-01 -1.7040997743606567e-01</leafValues></_>
        <_>
          <internalNodes>
            0 -1 933 -1.7836891114711761e-02</internalNodes>
          <leafValues>
            5.8015030622482300e-01 -5.8955229818820953e-02</leafValues></_>
        <_>
          <internalNodes>
            0 -1 263 -3.4466222859919071e-03</internalNodes>
          <leafValues>
            4.4773286581039429e-01 -6.4534537494182587e-02</leafValues></_>
        <_>
          <internalNodes>
            0 -1 143 5.1811039447784424e-03</internalNodes>
          <leafValues>
            -8.5012316703796387e-02 3.4390455484390259e-01</leafValues></_>
        <_>
          <internalNodes>
            0 -1 526 6.6124927252531052e-04</internalNodes>
          <leafValues>
            7.8698933124542236e-02 -3.6813747882843018e-01</leafValues></_>
        <_>
          <internalNodes>
            0 -1 400 -9.9194534122943878e-03</internalNodes>
          <leafValues>
            2.9370582103729248e-01 -9.6251204609870911e-02</leafValues></_>
        <_>
          <internalNodes>
            0 -1 398 2.4907531216740608e-02</internalNodes>
          <leafValues>
            -8.8626325130462646e-02 3.8885858654975891e-01</leafValues></_>
        <_>
          <internalNodes>
            0 -1 571 -5.9392559342086315e-03</internalNodes>
          <leafValues>
            1.4219984412193298e-01 -2.1350748836994171e-01</leafValues></_>
        <_>
          <internalNodes>
            0 -1 177 -6.6090703010559082e-02</internalNodes>
          <leafValues>
            2.8314396739006042e-01 -1.0370970517396927e-01</leafValues></_>
        <_>
          <internalNodes>
            0 -1 239 1.3598370552062988e-01</internalNodes>
          <leafValues>
            -5.6299302726984024e-02 5.0893598794937134e-01</leafValues></_>
        <_>
          <internalNodes>
            0 -1 487 5.5283177061937749e-05</internalNodes>
          <leafValues>
            1.4370951056480408e-01 -2.1476128697395325e-01</leafValues></_>
        <_>
          <internalNodes>
            0 -1 47 1.3732085935771465e-03</internalNodes>
          <leafValues>
            -1.8194568157196045e-01 1.7668703198432922e-01</leafValues></_>
        <_>
          <internalNodes>
            0 -1 906 -4.6239361166954041e-02</internalNodes>
          <leafValues>
            4.8959773778915405e-01 -6.5374180674552917e-02</leafValues></_>
        <_>
          <internalNodes>
            0 -1 354 2.9208328574895859e-02</internalNodes>
          <leafValues>
            -7.4696302413940430e-02 3.9919608831405640e-01</leafValues></_>
        <_>
          <internalNodes>
            0 -1 429 -4.1195220546796918e-05</internalNodes>
          <leafValues>
            -2.1394370496273041e-01 1.3873745501041412e-01</leafValues></_>
        <_>
          <internalNodes>
            0 -1 531 -4.6563841402530670e-02</internalNodes>
          <leafValues>
            4.7040557861328125e-01 -6.2660753726959229e-02</leafValues></_>
        <_>
          <internalNodes>
            0 -1 475 8.0434419214725494e-03</internalNodes>
          <leafValues>
            3.7573102861642838e-02 -8.0128759145736694e-01</leafValues></_>
        <_>
          <internalNodes>
            0 -1 586 -1.6787149012088776e-02</internalNodes>
          <leafValues>
            1.4885367453098297e-01 -1.7795799672603607e-01</leafValues></_>
        <_>
          <internalNodes>
            0 -1 282 -1.0259855538606644e-02</internalNodes>
          <leafValues>
            3.2776197791099548e-01 -8.7606064975261688e-02</leafValues></_>
        <_>
          <internalNodes>
            0 -1 135 -9.0114306658506393e-03</internalNodes>
          <leafValues>
            1.6398665308952332e-01 -1.6797830164432526e-01</leafValues></_>
        <_>
          <internalNodes>
            0 -1 255 -5.2954033017158508e-03</internalNodes>
          <leafValues>
            2.5184309482574463e-01 -1.1179421097040176e-01</leafValues></_>
        <_>
          <internalNodes>
            0 -1 567 8.7620932608842850e-03</internalNodes>
          <leafValues>
            4.0171172469854355e-02 -7.1091836690902710e-01</leafValues></_>
        <_>
          <internalNodes>
            0 -1 408 1.6479957848787308e-02</internalNodes>
          <leafValues>
            2.9858054593205452e-02 -7.1177685260772705e-01</leafValues></_>
        <_>
          <internalNodes>
            0 -1 456 -2.5505372323095798e-03</internalNodes>
          <leafValues>
            3.4105688333511353e-01 -8.5273936390876770e-02</leafValues></_>
        <_>
          <internalNodes>
            0 -1 632 -2.1861100569367409e-02</internalNodes>
          <leafValues>
            -6.4719808101654053e-01 4.1603248566389084e-02</leafValues></_>
        <_>
          <internalNodes>
            0 -1 298 2.6321411132812500e-04</internalNodes>
          <leafValues>
            1.0391431301832199e-01 -2.3565301299095154e-01</leafValues></_>
        <_>
          <internalNodes>
            0 -1 959 -2.1688721608370543e-03</internalNodes>
          <leafValues>
            2.7149003744125366e-01 -9.6206016838550568e-02</leafValues></_>
        <_>
          <internalNodes>
            0 -1 957 9.3264859169721603e-03</internalNodes>
          <leafValues>
            -6.8082422018051147e-02 4.1511520743370056e-01</leafValues></_>
        <_>
          <internalNodes>
            0 -1 423 3.9416732033714652e-04</internalNodes>
          <leafValues>
            1.0183010995388031e-01 -2.6015633344650269e-01</leafValues></_>
        <_>
          <internalNodes>
            0 -1 558 3.3751286566257477e-02</internalNodes>
          <leafValues>
            4.3777901679277420e-02 -5.4477953910827637e-01</leafValues></_>
        <_>
          <internalNodes>
            0 -1 617 -1.3882769271731377e-03</internalNodes>
          <leafValues>
            2.0191685855388641e-01 -1.4458845555782318e-01</leafValues></_>
        <_>
          <internalNodes>
            0 -1 782 -5.4084822535514832e-02</internalNodes>
          <leafValues>
            1.9926510751247406e-01 -1.3277587294578552e-01</leafValues></_>
        <_>
          <internalNodes>
            0 -1 771 9.2103471979498863e-03</internalNodes>
          <leafValues>
            -4.7567643225193024e-02 5.3624308109283447e-01</leafValues></_>
        <_>
          <internalNodes>
            0 -1 778 -5.6789617985486984e-02</internalNodes>
          <leafValues>
            -6.2366539239883423e-01 4.0986422449350357e-02</leafValues></_>
        <_>
          <internalNodes>
            0 -1 581 -8.8935932144522667e-03</internalNodes>
          <leafValues>
            3.9123424887657166e-01 -6.4404509961605072e-02</leafValues></_>
        <_>
          <internalNodes>
            0 -1 186 1.2008797377347946e-01</internalNodes>
          <leafValues>
            -4.8500340431928635e-02 4.8571261763572693e-01</leafValues></_>
        <_>
          <internalNodes>
            0 -1 469 -9.2947995290160179e-03</internalNodes>
          <leafValues>
            2.0691348612308502e-01 -1.0928373038768768e-01</leafValues></_>
        <_>
          <internalNodes>
            0 -1 530 -4.0231496095657349e-03</internalNodes>
          <leafValues>
            1.3479612767696381e-01 -1.8126948177814484e-01</leafValues></_>
        <_>
          <internalNodes>
            0 -1 251 -4.3518962338566780e-03</internalNodes>
          <leafValues>
            3.0985814332962036e-01 -7.6742388308048248e-02</leafValues></_></weakClassifiers></_>
    <!-- stage 7 -->
    <_>
      <maxWeakCount>53</maxWeakCount>
      <stageThreshold>-1.5929654836654663e+00</stageThreshold>
      <weakClassifiers>
        <_>
          <internalNodes>
            0 -1 890 5.2322011440992355e-02</internalNodes>
          <leafValues>
            -5.9890109300613403e-01 -1.8277311325073242e-01</leafValues></_>
        <_>
          <internalNodes>
            0 -1 61 -3.6810833960771561e-02</internalNodes>
          <leafValues>
            1.7803184688091278e-01 -2.7297279238700867e-01</leafValues></_>
        <_>
          <internalNodes>
            0 -1 542 -3.7727778544649482e-04</internalNodes>
          <leafValues>
            -3.4450539946556091e-01 1.0697360336780548e-01</leafValues></_>
        <_>
          <internalNodes>
            0 -1 542 2.9183839797042310e-04</internalNodes>
          <leafValues>
            1.7087614536285400e-01 -3.6774176359176636e-01</leafValues></_>
        <_>
          <internalNodes>
            0 -1 784 -7.0372857153415680e-03</internalNodes>
          <leafValues>
            1.9684734940528870e-01 -1.9493664801120758e-01</leafValues></_>
        <_>
          <internalNodes>
            0 -1 507 -2.9113898053765297e-02</internalNodes>
          <leafValues>
            2.7026450634002686e-01 -1.3605491816997528e-01</leafValues></_>
        <_>
          <internalNodes>
            0 -1 393 3.5889159888029099e-02</internalNodes>
          <leafValues>
            -5.6176304817199707e-02 4.3621623516082764e-01</leafValues></_>
        <_>
          <internalNodes>
            0 -1 843 2.2309854626655579e-02</internalNodes>
          <leafValues>
            -1.0047476738691330e-01 2.9769310355186462e-01</leafValues></_>
        <_>
          <internalNodes>
            0 -1 95 -2.2582304477691650e-01</internalNodes>
          <leafValues>
            -3.6434116959571838e-01 8.1758290529251099e-02</leafValues></_>
        <_>
          <internalNodes>
            0 -1 547 -2.0759420003741980e-03</internalNodes>
          <leafValues>
            -4.9670428037643433e-01 4.8402238637208939e-02</leafValues></_>
        <_>
          <internalNodes>
            0 -1 698 -1.3343249447643757e-03</internalNodes>
          <leafValues>
            1.5353627502918243e-01 -1.7722341418266296e-01</leafValues></_>
        <_>
          <internalNodes>
            0 -1 280 -2.7278196066617966e-02</internalNodes>
          <leafValues>
            2.1422804892063141e-01 -1.4231735467910767e-01</leafValues></_>
        <_>
          <internalNodes>
            0 -1 819 1.9644033163785934e-03</internalNodes>
          <leafValues>
            -1.4270809292793274e-01 1.9760543107986450e-01</leafValues></_>
        <_>
          <internalNodes>
            0 -1 237 1.5765868010930717e-04</internalNodes>
          <leafValues>
            1.1416238546371460e-01 -2.3940663039684296e-01</leafValues></_>
        <_>
          <internalNodes>
            0 -1 954 -1.8786268308758736e-02</internalNodes>
          <leafValues>
            -6.2596130371093750e-01 4.2213682085275650e-02</leafValues></_>
        <_>
          <internalNodes>
            0 -1 229 -1.2252679094672203e-02</internalNodes>
          <leafValues>
            3.4822696447372437e-01 -7.8121252357959747e-02</leafValues></_>
        <_>
          <internalNodes>
            0 -1 533 2.1987903863191605e-02</internalNodes>
          <leafValues>
            -4.9630071967840195e-02 5.1069450378417969e-01</leafValues></_>
        <_>
          <internalNodes>
            0 -1 201 -5.7693636044859886e-03</internalNodes>
          <leafValues>
            2.7940368652343750e-01 -8.4227479994297028e-02</leafValues></_>
        <_>
          <internalNodes>
            0 -1 89 -5.3489621495828032e-04</internalNodes>
          <leafValues>
            -2.9855564236640930e-01 8.9239537715911865e-02</leafValues></_>
        <_>
          <internalNodes>
            0 -1 375 6.8581255618482828e-04</internalNodes>
          <leafValues>
            9.5956541597843170e-02 -2.3848074674606323e-01</leafValues></_>
        <_>
          <internalNodes>
            0 -1 771 7.9071391373872757e-03</internalNodes>
          <leafValues>
            -5.6303031742572784e-02 4.3326121568679810e-01</leafValues></_>
        <_>
          <internalNodes>
            0 -1 606 6.4040995202958584e-03</internalNodes>
          <leafValues>
            -1.5669992566108704e-01 1.5199103951454163e-01</leafValues></_>
        <_>
          <internalNodes>
            0 -1 127 -4.0866404771804810e-02</internalNodes>
          <leafValues>
            1.7448467016220093e-01 -1.4535096287727356e-01</leafValues></_>
        <_>
          <internalNodes>
            0 -1 168 5.4921153932809830e-03</internalNodes>
          <leafValues>
            -1.6996313631534576e-01 1.7563278973102570e-01</leafValues></_>
        <_>
          <internalNodes>
            0 -1 44 5.8291293680667877e-03</internalNodes>
          <leafValues>
            -6.0384694486856461e-02 4.5289042592048645e-01</leafValues></_>
        <_>
          <internalNodes>
            0 -1 146 -1.1668573133647442e-03</internalNodes>
          <leafValues>
            -3.4342992305755615e-01 7.1790255606174469e-02</leafValues></_>
        <_>
          <internalNodes>
            0 -1 42 -3.4164037555456161e-02</internalNodes>
          <leafValues>
            -4.9029484391212463e-01 4.8215437680482864e-02</leafValues></_>
        <_>
          <internalNodes>
            0 -1 383 -6.0960819246247411e-04</internalNodes>
          <leafValues>
            -2.8593367338180542e-01 7.9355277121067047e-02</leafValues></_>
        <_>
          <internalNodes>
            0 -1 891 -1.7502088099718094e-02</internalNodes>
          <leafValues>
            4.3380302190780640e-01 -5.9523239731788635e-02</leafValues></_>
        <_>
          <internalNodes>
            0 -1 936 -9.4463750720024109e-03</internalNodes>
          <leafValues>
            2.8442531824111938e-01 -9.6664205193519592e-02</leafValues></_>
        <_>
          <internalNodes>
            0 -1 867 -3.4620285034179688e-02</internalNodes>
          <leafValues>
            3.1880301237106323e-01 -7.5385697185993195e-02</leafValues></_>
        <_>
          <internalNodes>
            0 -1 214 -1.1454845964908600e-01</internalNodes>
          <leafValues>
            -6.5008473396301270e-01 3.9688330143690109e-02</leafValues></_>
        <_>
          <internalNodes>
            0 -1 76 -6.3966391608119011e-03</internalNodes>
          <leafValues>
            1.6171909868717194e-01 -1.4472989737987518e-01</leafValues></_>
        <_>
          <internalNodes>
            0 -1 858 -1.5308700501918793e-02</internalNodes>
          <leafValues>
            1.8247908353805542e-01 -1.2903705239295959e-01</leafValues></_>
        <_>
          <internalNodes>
            0 -1 522 -1.2913729064166546e-02</internalNodes>
          <leafValues>
            -7.3537862300872803e-01 3.1796339899301529e-02</leafValues></_>
        <_>
          <internalNodes>
            0 -1 160 1.2034963071346283e-01</internalNodes>
          <leafValues>
            4.3732944875955582e-02 -4.7240769863128662e-01</leafValues></_>
        <_>
          <internalNodes>
            0 -1 753 1.3128776103258133e-02</internalNodes>
          <leafValues>
            3.3322818577289581e-02 -6.2935495376586914e-01</leafValues></_>
        <_>
          <internalNodes>
            0 -1 88 -1.0805627098307014e-03</internalNodes>
          <leafValues>
            -3.0306342244148254e-01 7.2949662804603577e-02</leafValues></_>
        <_>
          <internalNodes>
            0 -1 81 -1.3550457078963518e-03</internalNodes>
          <leafValues>
            2.4088618159294128e-01 -1.1006069928407669e-01</leafValues></_>
        <_>
          <internalNodes>
            0 -1 193 -4.0878974832594395e-03</internalNodes>
          <leafValues>
            2.8706121444702148e-01 -8.1012882292270660e-02</leafValues></_>
        <_>
          <internalNodes>
            0 -1 196 8.5867801681160927e-03</internalNodes>
          <leafValues>
            -9.5186837017536163e-02 2.3744641244411469e-01</leafValues></_>
        <_>
          <internalNodes>
            0 -1 458 -1.4113886281847954e-02</internalNodes>
          <leafValues>
            2.7764102816581726e-01 -8.3337351679801941e-02</leafValues></_>
        <_>
          <internalNodes>
            0 -1 2 -1.1754891602322459e-03</internalNodes>
          <leafValues>
            -3.2587867975234985e-01 7.7044904232025146e-02</leafValues></_>
        <_>
          <internalNodes>
            0 -1 690 -1.0004852665588260e-03</internalNodes>
          <leafValues>
            1.3192798197269440e-01 -1.8954083323478699e-01</leafValues></_>
        <_>
          <internalNodes>
            0 -1 406 4.9051873385906219e-02</internalNodes>
          <leafValues>
            -4.7505658119916916e-02 5.3500062227249146e-01</leafValues></_>
        <_>
          <internalNodes>
            0 -1 642 -6.6066021099686623e-04</internalNodes>
          <leafValues>
            9.2107862234115601e-02 -2.5750619173049927e-01</leafValues></_>
        <_>
          <internalNodes>
            0 -1 659 1.2969648838043213e-01</internalNodes>
          <leafValues>
            2.8041144832968712e-02 -7.0994591712951660e-01</leafValues></_>
        <_>
          <internalNodes>
            0 -1 183 3.9977589249610901e-01</internalNodes>
          <leafValues>
            -8.4733411669731140e-02 3.5773035883903503e-01</leafValues></_>
        <_>
          <internalNodes>
            0 -1 459 3.4305810928344727e-02</internalNodes>
          <leafValues>
            -6.6954851150512695e-02 3.3916828036308289e-01</leafValues></_>
        <_>
          <internalNodes>
            0 -1 312 -7.7983722090721130e-02</internalNodes>
          <leafValues>
            1.8686412274837494e-01 -1.2884241342544556e-01</leafValues></_>
        <_>
          <internalNodes>
            0 -1 859 -4.5818524085916579e-04</internalNodes>
          <leafValues>
            -2.0145604014396667e-01 1.0973541438579559e-01</leafValues></_>
        <_>
          <internalNodes>
            0 -1 315 9.3471936881542206e-02</internalNodes>
          <leafValues>
            -5.0837326794862747e-02 4.9431952834129333e-01</leafValues></_>
        <_>
          <internalNodes>
            0 -1 967 2.4373482447117567e-03</internalNodes>
          <leafValues>
            -7.9670399427413940e-02 2.8542268276214600e-01</leafValues></_></weakClassifiers></_>
    <!-- stage 8 -->
    <_>
      <maxWeakCount>59</maxWeakCount>
      <stageThreshold>-1.5399509668350220e+00</stageThreshold>
      <weakClassifiers>
        <_>
          <internalNodes>
            0 -1 466 2.4158414453268051e-02</internalNodes>
          <leafValues>
            -5.9142172336578369e-01 -1.2633563578128815e-01</leafValues></_>
        <_>
          <internalNodes>
            0 -1 488 -1.0438542813062668e-02</internalNodes>
          <leafValues>
            8.2773238420486450e-02 -3.6164158582687378e-01</leafValues></_>
        <_>
          <internalNodes>
            0 -1 48 -1.3993694446980953e-02</internalNodes>
          <leafValues>
            1.0261660069227219e-01 -3.2795029878616333e-01</leafValues></_>
        <_>
          <internalNodes>
            0 -1 78 6.0265664942562580e-03</internalNodes>
          <leafValues>
            -4.6789042651653290e-02 4.3767395615577698e-01</leafValues></_>
        <_>
          <internalNodes>
            0 -1 764 -1.2675813399255276e-02</internalNodes>
          <leafValues>
            2.4121667444705963e-01 -1.1517971009016037e-01</leafValues></_>
        <_>
          <internalNodes>
            0 -1 893 2.3516744375228882e-02</internalNodes>
          <leafValues>
            -6.5182708203792572e-02 3.9062592387199402e-01</leafValues></_>
        <_>
          <internalNodes>
            0 -1 489 -4.3262471444904804e-04</internalNodes>
          <leafValues>
            -3.0592045187950134e-01 8.1296205520629883e-02</leafValues></_>
        <_>
          <internalNodes>
            0 -1 484 2.7729678549803793e-04</internalNodes>
          <leafValues>
            1.4290691912174225e-01 -2.3071683943271637e-01</leafValues></_>
        <_>
          <internalNodes>
            0 -1 888 -2.5841876864433289e-02</internalNodes>
          <leafValues>
            5.5415534973144531e-01 -4.8941161483526230e-02</leafValues></_>
        <_>
          <internalNodes>
            0 -1 364 2.2313402965664864e-02</internalNodes>
          <leafValues>
            -6.4345337450504303e-02 4.0786132216453552e-01</leafValues></_>
        <_>
          <internalNodes>
            0 -1 118 1.4026134740561247e-03</internalNodes>
          <leafValues>
            -1.7530608177185059e-01 1.6093449294567108e-01</leafValues></_>
        <_>
          <internalNodes>
            0 -1 99 -9.5152910798788071e-03</internalNodes>
          <leafValues>
            1.5894089639186859e-01 -1.5410199761390686e-01</leafValues></_>
        <_>
          <internalNodes>
            0 -1 955 -5.2932072430849075e-03</internalNodes>
          <leafValues>
            2.1728672087192535e-01 -1.1474613845348358e-01</leafValues></_>
        <_>
          <internalNodes>
            0 -1 152 -6.7648035287857056e-01</internalNodes>
          <leafValues>
            2.9752212762832642e-01 -8.5160344839096069e-02</leafValues></_>
        <_>
          <internalNodes>
            0 -1 675 -3.5279459552839398e-04</internalNodes>
          <leafValues>
            1.5462657809257507e-01 -1.6154421865940094e-01</leafValues></_>
        <_>
          <internalNodes>
            0 -1 253 -1.2783589772880077e-02</internalNodes>
          <leafValues>
            2.8502345085144043e-01 -7.7301308512687683e-02</leafValues></_>
        <_>
          <internalNodes>
            0 -1 620 -7.8809782862663269e-03</internalNodes>
          <leafValues>
            -6.4407134056091309e-01 3.6601293832063675e-02</leafValues></_>
        <_>
          <internalNodes>
            0 -1 7 -2.2017642855644226e-02</internalNodes>
          <leafValues>
            -3.4296131134033203e-01 6.0597181320190430e-02</leafValues></_>
        <_>
          <internalNodes>
            0 -1 219 7.5148758478462696e-03</internalNodes>
          <leafValues>
            -9.3440279364585876e-02 2.4394126236438751e-01</leafValues></_>
        <_>
          <internalNodes>
            0 -1 611 1.3052321039140224e-02</internalNodes>
          <leafValues>
            5.7735159993171692e-02 -4.0059804916381836e-01</leafValues></_>
        <_>
          <internalNodes>
            0 -1 189 9.5149755477905273e-02</internalNodes>
          <leafValues>
            2.2941077128052711e-02 -7.9771989583969116e-01</leafValues></_>
        <_>
          <internalNodes>
            0 -1 81 -4.2591542005538940e-03</internalNodes>
          <leafValues>
            3.3080944418907166e-01 -6.9269776344299316e-02</leafValues></_>
        <_>
          <internalNodes>
            0 -1 638 -4.8817956121638417e-04</internalNodes>
          <leafValues>
            -3.3785596489906311e-01 6.7391850054264069e-02</leafValues></_>
        <_>
          <internalNodes>
            0 -1 639 2.5375845143571496e-04</internalNodes>
          <leafValues>
            8.3310633897781372e-02 -2.5318092107772827e-01</leafValues></_>
        <_>
          <internalNodes>
            0 -1 708 -1.5872926451265812e-03</internalNodes>
          <leafValues>
            1.5910887718200684e-01 -1.3821861147880554e-01</leafValues></_>
        <_>
          <internalNodes>
            0 -1 576 -1.5154901891946793e-02</internalNodes>
          <leafValues>
            1.8471004068851471e-01 -1.1937139928340912e-01</leafValues></_>
        <_>
          <internalNodes>
            0 -1 348 -1.9887018948793411e-02</internalNodes>
          <leafValues>
            -4.8580676317214966e-01 4.5140784233808517e-02</leafValues></_>
        <_>
          <internalNodes>
            0 -1 733 -9.0715438127517700e-03</internalNodes>
          <leafValues>
            3.5801768302917480e-01 -6.5125986933708191e-02</leafValues></_>
        <_>
          <internalNodes>
            0 -1 142 2.5075905025005341e-02</internalNodes>
          <leafValues>
            -8.5509203374385834e-02 2.6124003529548645e-01</leafValues></_>
        <_>
          <internalNodes>
            0 -1 702 5.7912047486752272e-04</internalNodes>
          <leafValues>
            8.1582359969615936e-02 -2.7001351118087769e-01</leafValues></_>
        <_>
          <internalNodes>
            0 -1 479 7.4249347671866417e-03</internalNodes>
          <leafValues>
            -6.6058747470378876e-02 3.4512200951576233e-01</leafValues></_>
        <_>
          <internalNodes>
            0 -1 505 -3.9699483662843704e-02</internalNodes>
          <leafValues>
            -6.1473947763442993e-01 3.8252539932727814e-02</leafValues></_>
        <_>
          <internalNodes>
            0 -1 373 3.3547708299010992e-03</internalNodes>
          <leafValues>
            4.5361876487731934e-02 -4.4441676139831543e-01</leafValues></_>
        <_>
          <internalNodes>
            0 -1 424 -1.4669861644506454e-02</internalNodes>
          <leafValues>
            -7.0627641677856445e-01 2.5136750191450119e-02</leafValues></_>
        <_>
          <internalNodes>
            0 -1 38 -3.6492967046797276e-03</internalNodes>
          <leafValues>
            2.3254853487014771e-01 -9.2240311205387115e-02</leafValues></_>
        <_>
          <internalNodes>
            0 -1 27 5.5973762646317482e-03</internalNodes>
          <leafValues>
            -1.0036981850862503e-01 2.4435274302959442e-01</leafValues></_>
        <_>
          <internalNodes>
            0 -1 19 2.0867347484454513e-04</internalNodes>
          <leafValues>
            9.6556253731250763e-02 -2.1841637790203094e-01</leafValues></_>
        <_>
          <internalNodes>
            0 -1 727 -1.9357961136847734e-03</internalNodes>
          <leafValues>
            1.5562337636947632e-01 -1.3358363509178162e-01</leafValues></_>
        <_>
          <internalNodes>
            0 -1 805 -1.8604677170515060e-02</internalNodes>
          <leafValues>
            -6.4969223737716675e-01 3.4437421709299088e-02</leafValues></_>
        <_>
          <internalNodes>
            0 -1 438 5.9236201923340559e-04</internalNodes>
          <leafValues>
            7.8333303332328796e-02 -2.6450136303901672e-01</leafValues></_>
        <_>
          <internalNodes>
            0 -1 123 1.1722571216523647e-03</internalNodes>
          <leafValues>
            -1.6942836344242096e-01 1.4283601939678192e-01</leafValues></_>
        <_>
          <internalNodes>
            0 -1 245 -9.6473172307014465e-03</internalNodes>
          <leafValues>
            2.0519092679023743e-01 -1.0410585254430771e-01</leafValues></_>
        <_>
          <internalNodes>
            0 -1 448 9.3031134456396103e-03</internalNodes>
          <leafValues>
            -1.7022965848445892e-01 1.3678817451000214e-01</leafValues></_>
        <_>
          <internalNodes>
            0 -1 314 -2.9431003332138062e-01</internalNodes>
          <leafValues>
            4.3531870841979980e-01 -5.0493527203798294e-02</leafValues></_>
        <_>
          <internalNodes>
            0 -1 688 -9.7780860960483551e-04</internalNodes>
          <leafValues>
            1.3486799597740173e-01 -1.4925946295261383e-01</leafValues></_>
        <_>
          <internalNodes>
            0 -1 695 9.3620074912905693e-03</internalNodes>
          <leafValues>
            -5.4150536656379700e-02 4.5273607969284058e-01</leafValues></_>
        <_>
          <internalNodes>
            0 -1 32 -5.8395266532897949e-03</internalNodes>
          <leafValues>
            1.8276271224021912e-01 -1.2511344254016876e-01</leafValues></_>
        <_>
          <internalNodes>
            0 -1 511 -1.5022356063127518e-02</internalNodes>
          <leafValues>
            -5.0099349021911621e-01 4.7776930034160614e-02</leafValues></_>
        <_>
          <internalNodes>
            0 -1 441 -7.6051056385040283e-04</internalNodes>
          <leafValues>
            -3.1039574742317200e-01 6.3305534422397614e-02</leafValues></_>
        <_>
          <internalNodes>
            0 -1 866 1.6401395201683044e-02</internalNodes>
          <leafValues>
            -6.9879874587059021e-02 2.8732225298881531e-01</leafValues></_>
        <_>
          <internalNodes>
            0 -1 922 -2.6974584907293320e-03</internalNodes>
          <leafValues>
            2.7464857697486877e-01 -8.2944303750991821e-02</leafValues></_>
        <_>
          <internalNodes>
            0 -1 18 -5.5040582083165646e-04</internalNodes>
          <leafValues>
            -2.8297853469848633e-01 7.6356165111064911e-02</leafValues></_>
        <_>
          <internalNodes>
            0 -1 755 -1.4123425353318453e-03</internalNodes>
          <leafValues>
            1.6343788802623749e-01 -1.3803200423717499e-01</leafValues></_>
        <_>
          <internalNodes>
            0 -1 964 -4.3591046705842018e-03</internalNodes>
          <leafValues>
            1.7862617969512939e-01 -1.1780674010515213e-01</leafValues></_>
        <_>
          <internalNodes>
            0 -1 163 -9.4861758407205343e-04</internalNodes>
          <leafValues>
            1.2969535589218140e-01 -1.7239826917648315e-01</leafValues></_>
        <_>
          <internalNodes>
            0 -1 212 1.9767118617892265e-02</internalNodes>
          <leafValues>
            -7.8563965857028961e-02 2.9074379801750183e-01</leafValues></_>
        <_>
          <internalNodes>
            0 -1 105 -1.2542594224214554e-02</internalNodes>
          <leafValues>
            1.7061756551265717e-01 -1.3764791190624237e-01</leafValues></_>
        <_>
          <internalNodes>
            0 -1 492 -1.9135303795337677e-02</internalNodes>
          <leafValues>
            -9.6085119247436523e-01 2.1657338365912437e-02</leafValues></_>
        <_>
          <internalNodes>
            0 -1 187 1.0079336166381836e-01</internalNodes>
          <leafValues>
            1.5248578041791916e-02 -8.6020076274871826e-01</leafValues></_></weakClassifiers></_>
    <!-- stage 9 -->
    <_>
      <maxWeakCount>63</maxWeakCount>
      <stageThreshold>-1.4893223047256470e+00</stageThreshold>
      <weakClassifiers>
        <_>
          <internalNodes>
            0 -1 90 2.3365959525108337e-02</internalNodes>
          <leafValues>
            -5.5405408143997192e-01 -1.6449511051177979e-01</leafValues></_>
        <_>
          <internalNodes>
            0 -1 232 -1.8420396372675896e-03</internalNodes>
          <leafValues>
            5.9978589415550232e-02 -3.4915855526924133e-01</leafValues></_>
        <_>
          <internalNodes>
            0 -1 937 -1.6661550849676132e-02</internalNodes>
          <leafValues>
            1.4998634159564972e-01 -2.4343995749950409e-01</leafValues></_>
        <_>
          <internalNodes>
            0 -1 351 -5.8620525524020195e-03</internalNodes>
          <leafValues>
            2.6377612352371216e-01 -8.8955089449882507e-02</leafValues></_>
        <_>
          <internalNodes>
            0 -1 636 -9.1128321364521980e-03</internalNodes>
          <leafValues>
            1.5377482771873474e-01 -1.6683255136013031e-01</leafValues></_>
        <_>
          <internalNodes>
            0 -1 425 9.3227092293091118e-05</internalNodes>
          <leafValues>
            1.1358939111232758e-01 -2.4972620606422424e-01</leafValues></_>
        <_>
          <internalNodes>
            0 -1 560 1.7388677224516869e-03</internalNodes>
          <leafValues>
            -1.5193413197994232e-01 1.7683972418308258e-01</leafValues></_>
        <_>
          <internalNodes>
            0 -1 67 1.6295712441205978e-02</internalNodes>
          <leafValues>
            -5.6019768118858337e-02 5.0238054990768433e-01</leafValues></_>
        <_>
          <internalNodes>
            0 -1 12 2.9947745800018311e-01</internalNodes>
          <leafValues>
            3.7461444735527039e-02 -5.8414632081985474e-01</leafValues></_>
        <_>
          <internalNodes>
            0 -1 167 -4.7806603834033012e-04</internalNodes>
          <leafValues>
            1.2111136317253113e-01 -2.3201499879360199e-01</leafValues></_>
        <_>
          <internalNodes>
            0 -1 909 -2.2740222513675690e-02</internalNodes>
          <leafValues>
            2.5536742806434631e-01 -9.2171400785446167e-02</leafValues></_>
        <_>
          <internalNodes>
            0 -1 829 7.5377132743597031e-03</internalNodes>
          <leafValues>
            -9.0824000537395477e-02 2.3579774796962738e-01</leafValues></_>
        <_>
          <internalNodes>
            0 -1 928 5.5817283689975739e-02</internalNodes>
          <leafValues>
            -5.7433698326349258e-02 4.0589672327041626e-01</leafValues></_>
        <_>
          <internalNodes>
            0 -1 228 -1.1509931646287441e-03</internalNodes>
          <leafValues>
            1.4906734228134155e-01 -1.4913105964660645e-01</leafValues></_>
        <_>
          <internalNodes>
            0 -1 369 -4.9141445197165012e-04</internalNodes>
          <leafValues>
            1.2613539397716522e-01 -1.9089283049106598e-01</leafValues></_>
        <_>
          <internalNodes>
            0 -1 883 -1.8815003335475922e-02</internalNodes>
          <leafValues>
            -4.5667457580566406e-01 4.8283282667398453e-02</leafValues></_>
        <_>
          <internalNodes>
            0 -1 651 2.0543573191389441e-04</internalNodes>
          <leafValues>
            7.7412955462932587e-02 -2.6781773567199707e-01</leafValues></_>
        <_>
          <internalNodes>
            0 -1 197 3.7791632115840912e-02</internalNodes>
          <leafValues>
            -5.0046585500240326e-02 4.6659246087074280e-01</leafValues></_>
        <_>
          <internalNodes>
            0 -1 139 5.1708295941352844e-03</internalNodes>
          <leafValues>
            -1.0105025023221970e-01 2.3774190247058868e-01</leafValues></_>
        <_>
          <internalNodes>
            0 -1 836 5.2116615697741508e-03</internalNodes>
          <leafValues>
            2.9006481170654297e-02 -7.3834311962127686e-01</leafValues></_>
        <_>
          <internalNodes>
            0 -1 473 -1.0499803349375725e-02</internalNodes>
          <leafValues>
            3.0716577172279358e-01 -7.4643023312091827e-02</leafValues></_>
        <_>
          <internalNodes>
            0 -1 837 6.8209716118872166e-03</internalNodes>
          <leafValues>
            3.4116279333829880e-02 -6.6375213861465454e-01</leafValues></_>
        <_>
          <internalNodes>
            0 -1 769 -1.4519057003781199e-03</internalNodes>
          <leafValues>
            2.3788888752460480e-01 -9.8691441118717194e-02</leafValues></_>
        <_>
          <internalNodes>
            0 -1 185 -1.5728019177913666e-02</internalNodes>
          <leafValues>
            1.5851092338562012e-01 -1.3028702139854431e-01</leafValues></_>
        <_>
          <internalNodes>
            0 -1 786 -1.9279304891824722e-02</internalNodes>
          <leafValues>
            2.0225775241851807e-01 -1.1022946983575821e-01</leafValues></_>
        <_>
          <internalNodes>
            0 -1 969 5.6625879369676113e-03</internalNodes>
          <leafValues>
            -8.6555421352386475e-02 2.5650522112846375e-01</leafValues></_>
        <_>
          <internalNodes>
            0 -1 256 -5.0124358385801315e-03</internalNodes>
          <leafValues>
            1.8765003979206085e-01 -1.0368312150239944e-01</leafValues></_>
        <_>
          <internalNodes>
            0 -1 360 -2.0313475281000137e-02</internalNodes>
          <leafValues>
            3.2600393891334534e-01 -6.1335835605859756e-02</leafValues></_>
        <_>
          <internalNodes>
            0 -1 372 4.6975712757557631e-04</internalNodes>
          <leafValues>
            9.3080691993236542e-02 -2.4375219643115997e-01</leafValues></_>
        <_>
          <internalNodes>
            0 -1 305 -3.9040178060531616e-02</internalNodes>
          <leafValues>
            2.1823129057884216e-01 -9.8431587219238281e-02</leafValues></_>
        <_>
          <internalNodes>
            0 -1 428 -5.4121419088914990e-04</internalNodes>
          <leafValues>
            -2.2083404660224915e-01 1.0480899363756180e-01</leafValues></_>
        <_>
          <internalNodes>
            0 -1 310 -2.0933113992214203e-03</internalNodes>
          <leafValues>
            1.4842727780342102e-01 -1.4932490885257721e-01</leafValues></_>
        <_>
          <internalNodes>
            0 -1 736 4.7921556979417801e-03</internalNodes>
          <leafValues>
            -2.1415486931800842e-01 1.2241140007972717e-01</leafValues></_>
        <_>
          <internalNodes>
            0 -1 240 6.8803891539573669e-02</internalNodes>
          <leafValues>
            -4.6748898923397064e-02 5.1851773262023926e-01</leafValues></_>
        <_>
          <internalNodes>
            0 -1 929 6.4181806519627571e-03</internalNodes>
          <leafValues>
            -9.7809314727783203e-02 2.0303647220134735e-01</leafValues></_>
        <_>
          <internalNodes>
            0 -1 968 1.5710556879639626e-02</internalNodes>
          <leafValues>
            -5.4944779723882675e-02 4.0119832754135132e-01</leafValues></_>
        <_>
          <internalNodes>
            0 -1 285 7.2490707971155643e-03</internalNodes>
          <leafValues>
            -5.3845491260290146e-02 3.6691892147064209e-01</leafValues></_>
        <_>
          <internalNodes>
            0 -1 403 4.4284999370574951e-02</internalNodes>
          <leafValues>
            -5.2312292158603668e-02 4.3355184793472290e-01</leafValues></_>
        <_>
          <internalNodes>
            0 -1 335 2.5018132873810828e-04</internalNodes>
          <leafValues>
            9.7381681203842163e-02 -2.1542930603027344e-01</leafValues></_>
        <_>
          <internalNodes>
            0 -1 790 -6.6074626520276070e-03</internalNodes>
          <leafValues>
            -5.2492988109588623e-01 3.5523731261491776e-02</leafValues></_>
        <_>
          <internalNodes>
            0 -1 601 9.0478948550298810e-05</internalNodes>
          <leafValues>
            9.7795762121677399e-02 -1.8884721398353577e-01</leafValues></_>
        <_>
          <internalNodes>
            0 -1 371 -1.5110076405107975e-02</internalNodes>
          <leafValues>
            3.2025986909866333e-01 -5.9339158236980438e-02</leafValues></_>
        <_>
          <internalNodes>
            0 -1 723 -6.4912671223282814e-04</internalNodes>
          <leafValues>
            1.4075730741024017e-01 -1.4803676307201385e-01</leafValues></_>
        <_>
          <internalNodes>
            0 -1 572 -3.0659142881631851e-02</internalNodes>
          <leafValues>
            -5.3130853176116943e-01 3.7934955209493637e-02</leafValues></_>
        <_>
          <internalNodes>
            0 -1 809 5.1624495536088943e-02</internalNodes>
          <leafValues>
            -5.1517419517040253e-02 3.9787766337394714e-01</leafValues></_>
        <_>
          <internalNodes>
            0 -1 582 5.4491928312927485e-04</internalNodes>
          <leafValues>
            6.0219001024961472e-02 -3.6967936158180237e-01</leafValues></_>
        <_>
          <internalNodes>
            0 -1 208 -2.2385837510228157e-03</internalNodes>
          <leafValues>
            2.4817454814910889e-01 -8.0380156636238098e-02</leafValues></_>
        <_>
          <internalNodes>
            0 -1 140 4.9591474235057831e-03</internalNodes>
          <leafValues>
            -7.8327104449272156e-02 2.7548044919967651e-01</leafValues></_>
        <_>
          <internalNodes>
            0 -1 519 2.0603262237273157e-04</internalNodes>
          <leafValues>
            7.9976946115493774e-02 -2.5272601842880249e-01</leafValues></_>
        <_>
          <internalNodes>
            0 -1 768 1.2270525097846985e-02</internalNodes>
          <leafValues>
            -8.9835725724697113e-02 2.1851567924022675e-01</leafValues></_>
        <_>
          <internalNodes>
            0 -1 602 -1.0879458859562874e-03</internalNodes>
          <leafValues>
            -5.2620249986648560e-01 3.8723781704902649e-02</leafValues></_>
        <_>
          <internalNodes>
            0 -1 843 -4.4421203434467316e-02</internalNodes>
          <leafValues>
            5.4995793104171753e-01 -3.9339769631624222e-02</leafValues></_>
        <_>
          <internalNodes>
            0 -1 137 1.2726012617349625e-02</internalNodes>
          <leafValues>
            -6.5915584564208984e-02 2.7394828200340271e-01</leafValues></_>
        <_>
          <internalNodes>
            0 -1 565 -2.1625839872285724e-04</internalNodes>
          <leafValues>
            1.7952482402324677e-01 -1.1195590347051620e-01</leafValues></_>
        <_>
          <internalNodes>
            0 -1 114 1.7776857130229473e-03</internalNodes>
          <leafValues>
            -8.3574093878269196e-02 2.1964845061302185e-01</leafValues></_>
        <_>
          <internalNodes>
            0 -1 176 -2.3912559845484793e-04</internalNodes>
          <leafValues>
            8.7789058685302734e-02 -2.1590092778205872e-01</leafValues></_>
        <_>
          <internalNodes>
            0 -1 610 4.5169033110141754e-03</internalNodes>
          <leafValues>
            3.3762145787477493e-02 -5.0897210836410522e-01</leafValues></_>
        <_>
          <internalNodes>
            0 -1 807 -1.4453515410423279e-02</internalNodes>
          <leafValues>
            2.3362816870212555e-01 -7.8075364232063293e-02</leafValues></_>
        <_>
          <internalNodes>
            0 -1 885 7.4150814907625318e-04</internalNodes>
          <leafValues>
            -1.3303381204605103e-01 1.4073346555233002e-01</leafValues></_>
        <_>
          <internalNodes>
            0 -1 691 1.9535282262950204e-05</internalNodes>
          <leafValues>
            9.2946469783782959e-02 -1.9968459010124207e-01</leafValues></_>
        <_>
          <internalNodes>
            0 -1 979 -4.3731828918680549e-04</internalNodes>
          <leafValues>
            -2.0080763101577759e-01 9.0906769037246704e-02</leafValues></_>
        <_>
          <internalNodes>
            0 -1 204 -3.4912656992673874e-03</internalNodes>
          <leafValues>
            2.0382957160472870e-01 -9.0994499623775482e-02</leafValues></_>
        <_>
          <internalNodes>
            0 -1 935 -8.2613173872232437e-03</internalNodes>
          <leafValues>
            -3.0484271049499512e-01 6.0481388121843338e-02</leafValues></_></weakClassifiers></_>
    <!-- stage 10 -->
    <_>
      <maxWeakCount>70</maxWeakCount>
      <stageThreshold>-1.4914385080337524e+00</stageThreshold>
      <weakClassifiers>
        <_>
          <internalNodes>
            0 -1 804 -8.7170407176017761e-02</internalNodes>
          <leafValues>
            -1.6591928899288177e-01 -5.6128579378128052e-01</leafValues></_>
        <_>
          <internalNodes>
            0 -1 218 3.3311173319816589e-02</internalNodes>
          <leafValues>
            -1.4269761741161346e-01 3.2099592685699463e-01</leafValues></_>
        <_>
          <internalNodes>
            0 -1 779 -8.6664175614714622e-04</internalNodes>
          <leafValues>
            1.4815601706504822e-01 -1.9471108913421631e-01</leafValues></_>
        <_>
          <internalNodes>
            0 -1 381 3.4278989769518375e-03</internalNodes>
          <leafValues>
            -2.4695293605327606e-01 9.2965617775917053e-02</leafValues></_>
        <_>
          <internalNodes>
            0 -1 470 -2.0010069012641907e-02</internalNodes>
          <leafValues>
            2.0548808574676514e-01 -1.1291306465864182e-01</leafValues></_>
        <_>
          <internalNodes>
            0 -1 361 2.4043958634138107e-02</internalNodes>
          <leafValues>
            -6.4565941691398621e-02 4.4416671991348267e-01</leafValues></_>
        <_>
          <internalNodes>
            0 -1 59 3.1618405133485794e-02</internalNodes>
          <leafValues>
            -9.7252316772937775e-02 2.7350765466690063e-01</leafValues></_>
        <_>
          <internalNodes>
            0 -1 587 -6.4182473579421639e-04</internalNodes>
          <leafValues>
            1.6656762361526489e-01 -1.5859852731227875e-01</leafValues></_>
        <_>
          <internalNodes>
            0 -1 743 -6.8869121605530381e-05</internalNodes>
          <leafValues>
            -1.6910248994827271e-01 1.3379719853401184e-01</leafValues></_>
        <_>
          <internalNodes>
            0 -1 294 -1.3714894885197282e-04</internalNodes>
          <leafValues>
            1.2248331308364868e-01 -1.8959674239158630e-01</leafValues></_>
        <_>
          <internalNodes>
            0 -1 370 -1.2661739252507687e-02</internalNodes>
          <leafValues>
            1.4903323352336884e-01 -1.7106609046459198e-01</leafValues></_>
        <_>
          <internalNodes>
            0 -1 102 -3.5666130483150482e-02</internalNodes>
          <leafValues>
            2.1067656576633453e-01 -1.1787289381027222e-01</leafValues></_>
        <_>
          <internalNodes>
            0 -1 914 -8.3472188562154770e-03</internalNodes>
          <leafValues>
            1.8712712824344635e-01 -1.1140047758817673e-01</leafValues></_>
        <_>
          <internalNodes>
            0 -1 839 6.2637971714138985e-03</internalNodes>
          <leafValues>
            -1.0096097737550735e-01 2.6819023489952087e-01</leafValues></_>
        <_>
          <internalNodes>
            0 -1 213 -7.3374964296817780e-02</internalNodes>
          <leafValues>
            -5.7063782215118408e-01 3.8010153919458389e-02</leafValues></_>
        <_>
          <internalNodes>
            0 -1 336 -4.3828380294144154e-03</internalNodes>
          <leafValues>
            1.5366439521312714e-01 -1.3713063299655914e-01</leafValues></_>
        <_>
          <internalNodes>
            0 -1 353 -1.8857706338167191e-02</internalNodes>
          <leafValues>
            3.0705770850181580e-01 -6.5826594829559326e-02</leafValues></_>
        <_>
          <internalNodes>
            0 -1 270 7.7246114611625671e-02</internalNodes>
          <leafValues>
            -6.1112280935049057e-02 3.6041226983070374e-01</leafValues></_>
        <_>
          <internalNodes>
            0 -1 695 -4.3305137660354376e-04</internalNodes>
          <leafValues>
            1.6046525537967682e-01 -1.4175713062286377e-01</leafValues></_>
        <_>
          <internalNodes>
            0 -1 179 6.4627281972207129e-05</internalNodes>
          <leafValues>
            9.9369965493679047e-02 -1.8949289619922638e-01</leafValues></_>
        <_>
          <internalNodes>
            0 -1 876 -4.1661551222205162e-03</internalNodes>
          <leafValues>
            2.1361792087554932e-01 -8.8746078312397003e-02</leafValues></_>
        <_>
          <internalNodes>
            0 -1 907 -1.2939487583935261e-02</internalNodes>
          <leafValues>
            5.8298200368881226e-01 -3.2806560397148132e-02</leafValues></_>
        <_>
          <internalNodes>
            0 -1 959 -4.4670542702078819e-03</internalNodes>
          <leafValues>
            3.2044100761413574e-01 -6.2433902174234390e-02</leafValues></_>
        <_>
          <internalNodes>
            0 -1 592 9.1214162239339203e-05</internalNodes>
          <leafValues>
            9.5544375479221344e-02 -2.1458949148654938e-01</leafValues></_>
        <_>
          <internalNodes>
            0 -1 493 -3.8211829960346222e-02</internalNodes>
          <leafValues>
            -6.6327607631683350e-01 3.0120357871055603e-02</leafValues></_>
        <_>
          <internalNodes>
            0 -1 96 5.1820738008245826e-04</internalNodes>
          <leafValues>
            6.3681237399578094e-02 -2.5831678509712219e-01</leafValues></_>
        <_>
          <internalNodes>
            0 -1 949 8.0511309206485748e-03</internalNodes>
          <leafValues>
            -8.6341001093387604e-02 2.1428939700126648e-01</leafValues></_>
        <_>
          <internalNodes>
            0 -1 209 -1.3664305210113525e-02</internalNodes>
          <leafValues>
            5.9045290946960449e-01 -2.9623340815305710e-02</leafValues></_>
        <_>
          <internalNodes>
            0 -1 582 -6.0262397164478898e-04</internalNodes>
          <leafValues>
            -3.4118235111236572e-01 5.5838134139776230e-02</leafValues></_>
        <_>
          <internalNodes>
            0 -1 220 -2.6432883460074663e-03</internalNodes>
          <leafValues>
            1.3254892826080322e-01 -1.3515251874923706e-01</leafValues></_>
        <_>
          <internalNodes>
            0 -1 797 7.1554221212863922e-03</internalNodes>
          <leafValues>
            -9.3797586858272552e-02 1.9666261970996857e-01</leafValues></_>
        <_>
          <internalNodes>
            0 -1 113 5.0804084166884422e-03</internalNodes>
          <leafValues>
            8.6147621273994446e-02 -2.4258558452129364e-01</leafValues></_>
        <_>
          <internalNodes>
            0 -1 772 -2.2260138764977455e-02</internalNodes>
          <leafValues>
            2.9425814747810364e-01 -7.0336274802684784e-02</leafValues></_>
        <_>
          <internalNodes>
            0 -1 132 -9.1274715960025787e-03</internalNodes>
          <leafValues>
            1.3767927885055542e-01 -1.4274565875530243e-01</leafValues></_>
        <_>
          <internalNodes>
            0 -1 317 2.1245999960228801e-04</internalNodes>
          <leafValues>
            1.1243374645709991e-01 -1.9951727986335754e-01</leafValues></_>
        <_>
          <internalNodes>
            0 -1 800 -4.7466784715652466e-02</internalNodes>
          <leafValues>
            4.8692500591278076e-01 -4.2453661561012268e-02</leafValues></_>
        <_>
          <internalNodes>
            0 -1 714 3.7953832652419806e-03</internalNodes>
          <leafValues>
            4.5728031545877457e-02 -4.7429129481315613e-01</leafValues></_>
        <_>
          <internalNodes>
            0 -1 504 -4.3948931852355599e-04</internalNodes>
          <leafValues>
            1.6760551929473877e-01 -1.0811002552509308e-01</leafValues></_>
        <_>
          <internalNodes>
            0 -1 151 -3.6690616607666016e-01</internalNodes>
          <leafValues>
            1.6749811172485352e-01 -1.1162367463111877e-01</leafValues></_>
        <_>
          <internalNodes>
            0 -1 608 2.3513836786150932e-03</internalNodes>
          <leafValues>
            -8.6031556129455566e-02 2.4058119952678680e-01</leafValues></_>
        <_>
          <internalNodes>
            0 -1 868 -3.5496831405907869e-03</internalNodes>
          <leafValues>
            2.0657083392143250e-01 -8.9133523404598236e-02</leafValues></_>
        <_>
          <internalNodes>
            0 -1 262 -1.5146335354074836e-03</internalNodes>
          <leafValues>
            2.0710003376007080e-01 -8.7141886353492737e-02</leafValues></_>
        <_>
          <internalNodes>
            0 -1 88 2.3756818845868111e-03</internalNodes>
          <leafValues>
            4.7355789691209793e-02 -3.7259724736213684e-01</leafValues></_>
        <_>
          <internalNodes>
            0 -1 916 -1.1449979618191719e-02</internalNodes>
          <leafValues>
            -4.3489396572113037e-01 3.7966117262840271e-02</leafValues></_>
        <_>
          <internalNodes>
            0 -1 80 -2.1226098760962486e-03</internalNodes>
          <leafValues>
            3.2914474606513977e-01 -5.3232271224260330e-02</leafValues></_>
        <_>
          <internalNodes>
            0 -1 573 -2.0939866080880165e-02</internalNodes>
          <leafValues>
            -5.5910295248031616e-01 3.1502641737461090e-02</leafValues></_>
        <_>
          <internalNodes>
            0 -1 500 4.5804742723703384e-02</internalNodes>
          <leafValues>
            2.0353326573967934e-02 -6.7975801229476929e-01</leafValues></_>
        <_>
          <internalNodes>
            0 -1 915 1.8396697938442230e-02</internalNodes>
          <leafValues>
            -8.4379285573959351e-02 2.2569718956947327e-01</leafValues></_>
        <_>
          <internalNodes>
            0 -1 875 1.9019054889213294e-05</internalNodes>
          <leafValues>
            -1.5015251934528351e-01 1.3358014822006226e-01</leafValues></_>
        <_>
          <internalNodes>
            0 -1 597 2.4019836564548314e-04</internalNodes>
          <leafValues>
            7.2293616831302643e-02 -2.5883424282073975e-01</leafValues></_>
        <_>
          <internalNodes>
            0 -1 597 -4.6977540478110313e-04</internalNodes>
          <leafValues>
            -3.5076558589935303e-01 4.9292493611574173e-02</leafValues></_>
        <_>
          <internalNodes>
            0 -1 593 -2.3541064001619816e-03</internalNodes>
          <leafValues>
            1.5714198350906372e-01 -1.1948419362306595e-01</leafValues></_>
        <_>
          <internalNodes>
            0 -1 78 4.0862178429961205e-03</internalNodes>
          <leafValues>
            -6.8763934075832367e-02 2.5624459981918335e-01</leafValues></_>
        <_>
          <internalNodes>
            0 -1 26 6.6120214760303497e-03</internalNodes>
          <leafValues>
            -7.6213695108890533e-02 2.4371311068534851e-01</leafValues></_>
        <_>
          <internalNodes>
            0 -1 660 1.1962765827775002e-02</internalNodes>
          <leafValues>
            2.6283763349056244e-02 -6.4852851629257202e-01</leafValues></_>
        <_>
          <internalNodes>
            0 -1 943 -5.1664244383573532e-03</internalNodes>
          <leafValues>
            1.7830643057823181e-01 -9.5912083983421326e-02</leafValues></_>
        <_>
          <internalNodes>
            0 -1 104 -4.9263667315244675e-03</internalNodes>
          <leafValues>
            2.1042956411838531e-01 -8.0735497176647186e-02</leafValues></_>
        <_>
          <internalNodes>
            0 -1 467 -1.1471634730696678e-02</internalNodes>
          <leafValues>
            1.7858500778675079e-01 -1.0708382725715637e-01</leafValues></_>
        <_>
          <internalNodes>
            0 -1 731 -7.6319938525557518e-03</internalNodes>
          <leafValues>
            1.3286237418651581e-01 -1.2869252264499664e-01</leafValues></_>
        <_>
          <internalNodes>
            0 -1 680 8.4001868963241577e-03</internalNodes>
          <leafValues>
            -4.3301414698362350e-02 4.0419661998748779e-01</leafValues></_>
        <_>
          <internalNodes>
            0 -1 369 -4.9137650057673454e-04</internalNodes>
          <leafValues>
            1.1220152676105499e-01 -1.6395866870880127e-01</leafValues></_>
        <_>
          <internalNodes>
            0 -1 31 -1.3076183199882507e-01</internalNodes>
          <leafValues>
            -3.4546872973442078e-01 4.9308296293020248e-02</leafValues></_>
        <_>
          <internalNodes>
            0 -1 671 -3.9647826924920082e-03</internalNodes>
          <leafValues>
            -5.7602185010910034e-01 2.6624992489814758e-02</leafValues></_>
        <_>
          <internalNodes>
            0 -1 33 -5.7497872039675713e-03</internalNodes>
          <leafValues>
            1.9355997443199158e-01 -9.3599446117877960e-02</leafValues></_>
        <_>
          <internalNodes>
            0 -1 476 2.3565240204334259e-02</internalNodes>
          <leafValues>
            -2.7005916461348534e-02 6.0566818714141846e-01</leafValues></_>
        <_>
          <internalNodes>
            0 -1 818 -1.1025310494005680e-02</internalNodes>
          <leafValues>
            -3.4059545397758484e-01 5.5689573287963867e-02</leafValues></_>
        <_>
          <internalNodes>
            0 -1 422 4.7757176798768342e-04</internalNodes>
          <leafValues>
            5.4252076894044876e-02 -2.7808898687362671e-01</leafValues></_>
        <_>
          <internalNodes>
            0 -1 673 1.9953269511461258e-03</internalNodes>
          <leafValues>
            -1.1868370324373245e-01 1.4672806859016418e-01</leafValues></_>
        <_>
          <internalNodes>
            0 -1 971 6.3685616478323936e-03</internalNodes>
          <leafValues>
            3.5116240382194519e-02 -4.2719367146492004e-01</leafValues></_>
        <_>
          <internalNodes>
            0 -1 718 -9.6920394571498036e-04</internalNodes>
          <leafValues>
            1.2730132043361664e-01 -1.1645053327083588e-01</leafValues></_></weakClassifiers></_>
    <!-- stage 11 -->
    <_>
      <maxWeakCount>72</maxWeakCount>
      <stageThreshold>-1.5069907903671265e+00</stageThreshold>
      <weakClassifiers>
        <_>
          <internalNodes>
            0 -1 570 -1.6567910090088844e-02</internalNodes>
          <leafValues>
            -2.8134173154830933e-01 -5.9133261442184448e-01</leafValues></_>
        <_>
          <internalNodes>
            0 -1 763 2.6900315657258034e-02</internalNodes>
          <leafValues>
            -1.9273671507835388e-01 1.6123569011688232e-01</leafValues></_>
        <_>
          <internalNodes>
            0 -1 63 -5.6145279668271542e-03</internalNodes>
          <leafValues>
            1.0089922696352005e-01 -2.9473775625228882e-01</leafValues></_>
        <_>
          <internalNodes>
            0 -1 29 -2.1431110799312592e-01</internalNodes>
          <leafValues>
            -6.1472827196121216e-01 8.3884768187999725e-02</leafValues></_>
        <_>
          <internalNodes>
            0 -1 166 1.5905740438029170e-03</internalNodes>
          <leafValues>
            -1.6951832175254822e-01 1.6362090408802032e-01</leafValues></_>
        <_>
          <internalNodes>
            0 -1 542 -8.4403820801526308e-04</internalNodes>
          <leafValues>
            -4.0039756894111633e-01 9.3832232058048248e-02</leafValues></_>
        <_>
          <internalNodes>
            0 -1 637 -2.6022652164101601e-03</internalNodes>
          <leafValues>
            2.0916716754436493e-01 -1.0630194097757339e-01</leafValues></_>
        <_>
          <internalNodes>
            0 -1 14 2.6048618555068970e-01</internalNodes>
          <leafValues>
            3.2204464077949524e-02 -8.2111930847167969e-01</leafValues></_>
        <_>
          <internalNodes>
            0 -1 483 8.3527906099334359e-04</internalNodes>
          <leafValues>
            4.9459103494882584e-02 -4.2298161983489990e-01</leafValues></_>
        <_>
          <internalNodes>
            0 -1 934 2.8282482177019119e-02</internalNodes>
          <leafValues>
            -7.2364933788776398e-02 3.9733272790908813e-01</leafValues></_>
        <_>
          <internalNodes>
            0 -1 68 9.0969186276197433e-03</internalNodes>
          <leafValues>
            -8.4984757006168365e-02 2.3213851451873779e-01</leafValues></_>
        <_>
          <internalNodes>
            0 -1 796 -5.6068979203701019e-02</internalNodes>
          <leafValues>
            1.7475350201129913e-01 -1.2299820780754089e-01</leafValues></_>
        <_>
          <internalNodes>
            0 -1 524 1.3285788707435131e-02</internalNodes>
          <leafValues>
            -3.6054722964763641e-02 6.1698728799819946e-01</leafValues></_>
        <_>
          <internalNodes>
            0 -1 341 2.3362267762422562e-02</internalNodes>
          <leafValues>
            -5.6206498295068741e-02 3.5424458980560303e-01</leafValues></_>
        <_>
          <internalNodes>
            0 -1 901 -1.0310770943760872e-02</internalNodes>
          <leafValues>
            4.9298450350761414e-01 -3.7425961345434189e-02</leafValues></_>
        <_>
          <internalNodes>
            0 -1 947 -3.7970519042573869e-04</internalNodes>
          <leafValues>
            -2.3337233066558838e-01 8.2889668643474579e-02</leafValues></_>
        <_>
          <internalNodes>
            0 -1 696 -4.6749073080718517e-03</internalNodes>
          <leafValues>
            1.0508979856967926e-01 -1.8661490082740784e-01</leafValues></_>
        <_>
          <internalNodes>
            0 -1 490 -6.9973908830434084e-04</internalNodes>
          <leafValues>
            -2.3473742604255676e-01 9.4662316143512726e-02</leafValues></_>
        <_>
          <internalNodes>
            0 -1 528 3.8645537570118904e-03</internalNodes>
          <leafValues>
            6.2174990773200989e-02 -3.7233933806419373e-01</leafValues></_>
        <_>
          <internalNodes>
            0 -1 970 -1.6562407836318016e-03</internalNodes>
          <leafValues>
            3.3010223507881165e-01 -6.6535308957099915e-02</leafValues></_>
        <_>
          <internalNodes>
            0 -1 967 1.3304480817168951e-03</internalNodes>
          <leafValues>
            -9.5317274332046509e-02 2.1364307403564453e-01</leafValues></_>
        <_>
          <internalNodes>
            0 -1 234 -2.5774061214178801e-03</internalNodes>
          <leafValues>
            2.1148939430713654e-01 -8.9881487190723419e-02</leafValues></_>
        <_>
          <internalNodes>
            0 -1 630 -3.1799703836441040e-02</internalNodes>
          <leafValues>
            -4.9168306589126587e-01 3.6697812378406525e-02</leafValues></_>
        <_>
          <internalNodes>
            0 -1 494 -1.8747195601463318e-02</internalNodes>
          <leafValues>
            1.3038739562034607e-01 -1.3221314549446106e-01</leafValues></_>
        <_>
          <internalNodes>
            0 -1 672 -5.6132633471861482e-04</internalNodes>
          <leafValues>
            1.9573023915290833e-01 -9.6729263663291931e-02</leafValues></_>
        <_>
          <internalNodes>
            0 -1 320 -1.4719038736075163e-03</internalNodes>
          <leafValues>
            1.4660884439945221e-01 -1.3334019482135773e-01</leafValues></_>
        <_>
          <internalNodes>
            0 -1 543 6.0443778056651354e-04</internalNodes>
          <leafValues>
            7.6716303825378418e-02 -2.3560681939125061e-01</leafValues></_>
        <_>
          <internalNodes>
            0 -1 287 -1.0855924338102341e-03</internalNodes>
          <leafValues>
            1.2350608408451080e-01 -1.6118408739566803e-01</leafValues></_>
        <_>
          <internalNodes>
            0 -1 119 7.5375312007963657e-04</internalNodes>
          <leafValues>
            -1.7025548219680786e-01 1.1536762118339539e-01</leafValues></_>
        <_>
          <internalNodes>
            0 -1 154 7.3629459366202354e-03</internalNodes>
          <leafValues>
            -8.1051073968410492e-02 3.4348708391189575e-01</leafValues></_>
        <_>
          <internalNodes>
            0 -1 704 -5.4961978457868099e-03</internalNodes>
          <leafValues>
            -5.0054520368576050e-01 3.7362065166234970e-02</leafValues></_>
        <_>
          <internalNodes>
            0 -1 299 7.1676867082715034e-03</internalNodes>
          <leafValues>
            -6.5255641937255859e-02 2.9025825858116150e-01</leafValues></_>
        <_>
          <internalNodes>
            0 -1 780 2.0800395868718624e-03</internalNodes>
          <leafValues>
            4.8885054886341095e-02 -4.2867055535316467e-01</leafValues></_>
        <_>
          <internalNodes>
            0 -1 464 -1.2179860845208168e-02</internalNodes>
          <leafValues>
            2.5188532471656799e-01 -8.6526006460189819e-02</leafValues></_>
        <_>
          <internalNodes>
            0 -1 182 2.2768041118979454e-02</internalNodes>
          <leafValues>
            -3.1793247908353806e-02 5.4005545377731323e-01</leafValues></_>
        <_>
          <internalNodes>
            0 -1 304 -3.0008036643266678e-02</internalNodes>
          <leafValues>
            1.6731888055801392e-01 -1.4406092464923859e-01</leafValues></_>
        <_>
          <internalNodes>
            0 -1 649 -4.5480383560061455e-03</internalNodes>
          <leafValues>
            -4.6864506602287292e-01 4.2020890861749649e-02</leafValues></_>
        <_>
          <internalNodes>
            0 -1 293 -2.1118571748957038e-04</internalNodes>
          <leafValues>
            1.0671277344226837e-01 -1.7126926779747009e-01</leafValues></_>
        <_>
          <internalNodes>
            0 -1 834 -2.3686825297772884e-03</internalNodes>
          <leafValues>
            1.7144985496997833e-01 -1.0751546919345856e-01</leafValues></_>
        <_>
          <internalNodes>
            0 -1 74 -1.8316695466637611e-02</internalNodes>
          <leafValues>
            -7.3892223834991455e-01 2.2890010848641396e-02</leafValues></_>
        <_>
          <internalNodes>
            0 -1 961 2.3836386390030384e-03</internalNodes>
          <leafValues>
            -5.7166360318660736e-02 3.3371856808662415e-01</leafValues></_>
        <_>
          <internalNodes>
            0 -1 21 8.0116406083106995e-02</internalNodes>
          <leafValues>
            2.1424582228064537e-02 -9.0932589769363403e-01</leafValues></_>
        <_>
          <internalNodes>
            0 -1 787 -6.9936504587531090e-03</internalNodes>
          <leafValues>
            -8.1775504350662231e-01 1.5150057151913643e-02</leafValues></_>
        <_>
          <internalNodes>
            0 -1 411 2.6917505264282227e-01</internalNodes>
          <leafValues>
            3.2068300992250443e-02 -4.5913338661193848e-01</leafValues></_>
        <_>
          <internalNodes>
            0 -1 436 -6.3625199254602194e-04</internalNodes>
          <leafValues>
            -1.7472016811370850e-01 9.3532569706439972e-02</leafValues></_>
        <_>
          <internalNodes>
            0 -1 664 -1.6994844190776348e-03</internalNodes>
          <leafValues>
            1.9392478466033936e-01 -9.4380415976047516e-02</leafValues></_>
        <_>
          <internalNodes>
            0 -1 378 4.6844254247844219e-03</internalNodes>
          <leafValues>
            3.9608314633369446e-02 -4.7476527094841003e-01</leafValues></_>
        <_>
          <internalNodes>
            0 -1 191 2.9344553127884865e-02</internalNodes>
          <leafValues>
            -4.3991092592477798e-02 4.3091166019439697e-01</leafValues></_>
        <_>
          <internalNodes>
            0 -1 192 -1.5832023695111275e-02</internalNodes>
          <leafValues>
            1.7996181547641754e-01 -9.8947145044803619e-02</leafValues></_>
        <_>
          <internalNodes>
            0 -1 581 1.6052540391683578e-02</internalNodes>
          <leafValues>
